FANN_FLO_2.1
num_layers=3
learning_rate=0.070000
connection_rate=1.000000
network_type=0
learning_momentum=0.000000
training_algorithm=2
train_error_function=1
train_stop_function=0
cascade_output_change_fraction=0.010000
quickprop_decay=-0.000100
quickprop_mu=1.750000
rprop_increase_factor=1.200000
rprop_decrease_factor=0.500000
rprop_delta_min=0.000000
rprop_delta_max=50.000000
rprop_delta_zero=0.100000
cascade_output_stagnation_epochs=12
cascade_candidate_change_fraction=0.010000
cascade_candidate_stagnation_epochs=12
cascade_max_out_epochs=150
cascade_min_out_epochs=50
cascade_max_cand_epochs=150
cascade_min_cand_epochs=50
cascade_num_candidate_groups=2
bit_fail_limit=3.49999999999999977796e-01
cascade_candidate_limit=1.00000000000000000000e+03
cascade_weight_multiplier=4.00000000000000022204e-01
cascade_activation_functions_count=10
cascade_activation_functions=3 5 7 8 10 11 14 15 16 17 
cascade_activation_steepnesses_count=4
cascade_activation_steepnesses=2.50000000000000000000e-01 5.00000000000000000000e-01 7.50000000000000000000e-01 1.00000000000000000000e+00 
layer_sizes=65 21 11 
scale_included=0
neurons (num_inputs, activation_function, activation_steepness)=(0, 0, 0.00000000000000000000e+00) (0, 0, 0.00000000000000000000e+00) (0, 0, 0.00000000000000000000e+00) (0, 0, 0.00000000000000000000e+00) (0, 0, 0.00000000000000000000e+00) (0, 0, 0.00000000000000000000e+00) (0, 0, 0.00000000000000000000e+00) (0, 0, 0.00000000000000000000e+00) (0, 0, 0.00000000000000000000e+00) (0, 0, 0.00000000000000000000e+00) (0, 0, 0.00000000000000000000e+00) (0, 0, 0.00000000000000000000e+00) (0, 0, 0.00000000000000000000e+00) (0, 0, 0.00000000000000000000e+00) (0, 0, 0.00000000000000000000e+00) (0, 0, 0.00000000000000000000e+00) (0, 0, 0.00000000000000000000e+00) (0, 0, 0.00000000000000000000e+00) (0, 0, 0.00000000000000000000e+00) (0, 0, 0.00000000000000000000e+00) (0, 0, 0.00000000000000000000e+00) (0, 0, 0.00000000000000000000e+00) (0, 0, 0.00000000000000000000e+00) (0, 0, 0.00000000000000000000e+00) (0, 0, 0.00000000000000000000e+00) (0, 0, 0.00000000000000000000e+00) (0, 0, 0.00000000000000000000e+00) (0, 0, 0.00000000000000000000e+00) (0, 0, 0.00000000000000000000e+00) (0, 0, 0.00000000000000000000e+00) (0, 0, 0.00000000000000000000e+00) (0, 0, 0.00000000000000000000e+00) (0, 0, 0.00000000000000000000e+00) (0, 0, 0.00000000000000000000e+00) (0, 0, 0.00000000000000000000e+00) (0, 0, 0.00000000000000000000e+00) (0, 0, 0.00000000000000000000e+00) (0, 0, 0.00000000000000000000e+00) (0, 0, 0.00000000000000000000e+00) (0, 0, 0.00000000000000000000e+00) (0, 0, 0.00000000000000000000e+00) (0, 0, 0.00000000000000000000e+00) (0, 0, 0.00000000000000000000e+00) (0, 0, 0.00000000000000000000e+00) (0, 0, 0.00000000000000000000e+00) (0, 0, 0.00000000000000000000e+00) (0, 0, 0.00000000000000000000e+00) (0, 0, 0.00000000000000000000e+00) (0, 0, 0.00000000000000000000e+00) (0, 0, 0.00000000000000000000e+00) (0, 0, 0.00000000000000000000e+00) (0, 0, 0.00000000000000000000e+00) (0, 0, 0.00000000000000000000e+00) (0, 0, 0.00000000000000000000e+00) (0, 0, 0.00000000000000000000e+00) (0, 0, 0.00000000000000000000e+00) (0, 0, 0.00000000000000000000e+00) (0, 0, 0.00000000000000000000e+00) (0, 0, 0.00000000000000000000e+00) (0, 0, 0.00000000000000000000e+00) (0, 0, 0.00000000000000000000e+00) (0, 0, 0.00000000000000000000e+00) (0, 0, 0.00000000000000000000e+00) (0, 0, 0.00000000000000000000e+00) (0, 0, 0.00000000000000000000e+00) (65, 4, 5.00000000000000000000e-01) (65, 4, 5.00000000000000000000e-01) (65, 4, 5.00000000000000000000e-01) (65, 4, 5.00000000000000000000e-01) (65, 4, 5.00000000000000000000e-01) (65, 4, 5.00000000000000000000e-01) (65, 4, 5.00000000000000000000e-01) (65, 4, 5.00000000000000000000e-01) (65, 4, 5.00000000000000000000e-01) (65, 4, 5.00000000000000000000e-01) (65, 4, 5.00000000000000000000e-01) (65, 4, 5.00000000000000000000e-01) (65, 4, 5.00000000000000000000e-01) (65, 4, 5.00000000000000000000e-01) (65, 4, 5.00000000000000000000e-01) (65, 4, 5.00000000000000000000e-01) (65, 4, 5.00000000000000000000e-01) (65, 4, 5.00000000000000000000e-01) (65, 4, 5.00000000000000000000e-01) (65, 4, 5.00000000000000000000e-01) (0, 0, 0.00000000000000000000e+00) (21, 6, 5.00000000000000000000e-01) (21, 6, 5.00000000000000000000e-01) (21, 6, 5.00000000000000000000e-01) (21, 6, 5.00000000000000000000e-01) (21, 6, 5.00000000000000000000e-01) (21, 6, 5.00000000000000000000e-01) (21, 6, 5.00000000000000000000e-01) (21, 6, 5.00000000000000000000e-01) (21, 6, 5.00000000000000000000e-01) (21, 6, 5.00000000000000000000e-01) (0, 6, 0.00000000000000000000e+00) 
connections (connected_to_neuron, weight)=(0, 1.50000000000000000000e+03) (1, 1.37922821647691648650e+03) (2, -1.27759565020943136915e+03) (3, 1.22797105080649930642e+03) (4, 1.01424170259612128575e+03) (5, 7.35749102447244069936e+01) (6, 1.50000000000000000000e+03) (7, 1.50000000000000000000e+03) (8, -1.50000000000000000000e+03) (9, 1.50000000000000000000e+03) (10, 1.49775210936858729838e+03) (11, -8.54973891749842323406e+02) (12, -1.50000000000000000000e+03) (13, -1.50000000000000000000e+03) (14, 1.50000000000000000000e+03) (15, 1.50000000000000000000e+03) (16, -1.50000000000000000000e+03) (17, -1.50000000000000000000e+03) (18, 1.49501567290702723767e+03) (19, -1.06877843642239781730e+03) (20, -1.45973836432389839501e+03) (21, -1.50000000000000000000e+03) (22, -1.50000000000000000000e+03) (23, -1.09013505826511232044e+03) (24, -1.50000000000000000000e+03) (25, -1.50000000000000000000e+03) (26, 1.43220849002709110209e+03) (27, 1.37825652188909043616e+03) (28, 1.50000000000000000000e+03) (29, 1.32958678035243860904e+03) (30, -1.44744695546858270063e+03) (31, 5.62138614664501233165e+02) (32, 1.50000000000000000000e+03) (33, -1.28906226242654111047e+03) (34, -1.31138286457504909777e+03) (35, 1.34088132177094871622e+03) (36, 8.37071527678864526933e+02) (37, 1.50000000000000000000e+03) (38, -1.50000000000000000000e+03) (39, 1.50000000000000000000e+03) (40, 1.50000000000000000000e+03) (41, 1.50000000000000000000e+03) (42, -1.50000000000000000000e+03) (43, 1.50000000000000000000e+03) (44, 6.68438877966595555336e+02) (45, 1.26888696766755901990e+03) (46, 1.48963199819755550379e+03) (47, 1.50000000000000000000e+03) (48, 1.50000000000000000000e+03) (49, 1.50000000000000000000e+03) (50, -1.12685902739978337195e+03) (51, -6.56678663363396822206e+02) (52, -1.50000000000000000000e+03) (53, -1.50000000000000000000e+03) (54, 1.50000000000000000000e+03) (55, -1.50000000000000000000e+03) (56, 1.50000000000000000000e+03) (57, 1.50000000000000000000e+03) (58, 1.50000000000000000000e+03) (59, -1.48819790047686387879e+03) (60, -4.96487345710713555036e+02) (61, 1.49036407036033278928e+03) (62, 1.50000000000000000000e+03) (63, -1.50000000000000000000e+03) (64, 1.49996839439878021949e+03) (0, 1.50000000000000000000e+03) (1, 1.50000000000000000000e+03) (2, 1.49932988340904284996e+03) (3, 1.49865172897361026116e+03) (4, 1.50000000000000000000e+03) (5, -1.50000000000000000000e+03) (6, -1.50000000000000000000e+03) (7, 1.50000000000000000000e+03) (8, 1.50000000000000000000e+03) (9, 1.49758687567766651227e+03) (10, 1.49953448171714649106e+03) (11, 1.49992789388178925947e+03) (12, -1.50000000000000000000e+03) (13, 1.50000000000000000000e+03) (14, -1.50000000000000000000e+03) (15, 1.50000000000000000000e+03) (16, 1.50000000000000000000e+03) (17, -1.50000000000000000000e+03) (18, -1.50000000000000000000e+03) (19, 1.50000000000000000000e+03) (20, 1.48926319477171659855e+03) (21, 1.47185736589155521870e+03) (22, -1.20676188345203809149e+03) (23, 1.50000000000000000000e+03) (24, 1.50000000000000000000e+03) (25, 1.50000000000000000000e+03) (26, 1.50000000000000000000e+03) (27, 1.50000000000000000000e+03) (28, 1.30921788614024922026e+03) (29, -1.50000000000000000000e+03) (30, -1.36638821665334648969e+03) (31, 1.50000000000000000000e+03) (32, 1.50000000000000000000e+03) (33, 1.50000000000000000000e+03) (34, 1.50000000000000000000e+03) (35, 1.50000000000000000000e+03) (36, 1.50000000000000000000e+03) (37, 1.50000000000000000000e+03) (38, 1.50000000000000000000e+03) (39, 1.50000000000000000000e+03) (40, 1.50000000000000000000e+03) (41, 1.50000000000000000000e+03) (42, 1.50000000000000000000e+03) (43, -1.50000000000000000000e+03) (44, 1.50000000000000000000e+03) (45, 1.50000000000000000000e+03) (46, 1.50000000000000000000e+03) (47, -1.76675467581005023021e+02) (48, 1.50000000000000000000e+03) (49, 1.50000000000000000000e+03) (50, 1.50000000000000000000e+03) (51, -1.50000000000000000000e+03) (52, -1.35897383116303785755e+03) (53, 1.49601981601312172643e+03) (54, -1.50000000000000000000e+03) (55, -1.50000000000000000000e+03) (56, -1.50000000000000000000e+03) (57, -1.35028486591817141971e+02) (58, 1.49988194730729310322e+03) (59, 1.50000000000000000000e+03) (60, 1.50000000000000000000e+03) (61, -1.50000000000000000000e+03) (62, -1.50000000000000000000e+03) (63, -1.50000000000000000000e+03) (64, -3.10694400109569528468e+02) (0, 1.50000000000000000000e+03) (1, -5.93200506970807168727e+02) (2, -1.48975523274181682609e+03) (3, 1.50000000000000000000e+03) (4, -1.48810325649349306332e+03) (5, -3.49525395827777856539e+02) (6, -1.42918828325746130758e+03) (7, 1.50000000000000000000e+03) (8, 1.34579999198913560576e+03) (9, -1.50000000000000000000e+03) (10, 7.45612716932690489102e+01) (11, 1.04644654613882653393e+03) (12, 1.50000000000000000000e+03) (13, 1.50000000000000000000e+03) (14, 1.26867332333820218082e+03) (15, 1.50000000000000000000e+03) (16, 1.50000000000000000000e+03) (17, -6.06032165933385385870e+02) (18, -1.50000000000000000000e+03) (19, -4.36794132039066539619e+02) (20, 1.50000000000000000000e+03) (21, 1.50000000000000000000e+03) (22, 1.23279998877048478789e+03) (23, -1.50000000000000000000e+03) (24, 1.50000000000000000000e+03) (25, -1.41754386642059284895e+03) (26, -1.50000000000000000000e+03) (27, -1.50000000000000000000e+03) (28, -1.50000000000000000000e+03) (29, 5.11493387569849403462e+02) (30, 9.31169526827802229718e+01) (31, -1.50000000000000000000e+03) (32, 1.50000000000000000000e+03) (33, -1.50000000000000000000e+03) (34, -1.06368772397452903533e+03) (35, 1.28983783536016994731e+03) (36, 1.21813623768741081221e+03) (37, -1.46540331958959291114e+03) (38, 1.48868018815733444171e+03) (39, 1.50000000000000000000e+03) (40, -1.50000000000000000000e+03) (41, -1.50000000000000000000e+03) (42, 1.50000000000000000000e+03) (43, -4.46531329725053804935e+00) (44, 1.43748784307655182602e+03) (45, -4.76459360207625252315e+02) (46, -1.23258571948993562728e+03) (47, 5.40799990797042710255e+02) (48, -1.50000000000000000000e+03) (49, -1.50000000000000000000e+03) (50, 1.50000000000000000000e+03) (51, 1.50000000000000000000e+03) (52, -1.35654617926255627935e+03) (53, 1.50000000000000000000e+03) (54, 8.87618423972066807437e+02) (55, 1.50000000000000000000e+03) (56, 1.50000000000000000000e+03) (57, -1.50000000000000000000e+03) (58, -1.49510396260539118884e+03) (59, -1.52704935071977843108e+02) (60, -1.50000000000000000000e+03) (61, 1.37611498340165053378e+03) (62, 1.50000000000000000000e+03) (63, 1.50000000000000000000e+03) (64, -6.91772031085451004628e+01) (0, 1.50000000000000000000e+03) (1, -1.50000000000000000000e+03) (2, -1.41810063576263905816e+03) (3, 1.50000000000000000000e+03) (4, -1.50000000000000000000e+03) (5, 4.53014477430668534907e+02) (6, 4.89718935109056232591e+01) (7, 1.50000000000000000000e+03) (8, -1.11328531395981599417e+02) (9, -1.50000000000000000000e+03) (10, 1.39829605381666988251e+03) (11, 3.15908966835482196700e+01) (12, 1.39645804866995649718e+03) (13, 1.50000000000000000000e+03) (14, 1.34040559137881518836e+03) (15, 1.50000000000000000000e+03) (16, 1.50000000000000000000e+03) (17, 1.58599662636090897649e+02) (18, -4.82717824192684020090e+02) (19, -3.58328860891304756819e+01) (20, 2.67707256224923639820e+02) (21, 1.50000000000000000000e+03) (22, 4.96126773326738771175e+02) (23, -1.50000000000000000000e+03) (24, -1.50000000000000000000e+03) (25, -1.38008898227081772347e+03) (26, -1.31969930908280116455e+03) (27, 1.48117754710563235676e+03) (28, -1.50000000000000000000e+03) (29, 5.87333453120014837623e+02) (30, -1.50000000000000000000e+03) (31, -1.50000000000000000000e+03) (32, 1.50000000000000000000e+03) (33, -1.50000000000000000000e+03) (34, 5.58574986355530995752e+02) (35, 8.87440677365249257491e+02) (36, -1.50000000000000000000e+03) (37, -1.50000000000000000000e+03) (38, -1.50000000000000000000e+03) (39, 1.50000000000000000000e+03) (40, -1.50000000000000000000e+03) (41, -1.50000000000000000000e+03) (42, 1.50000000000000000000e+03) (43, -1.50000000000000000000e+03) (44, -1.50000000000000000000e+03) (45, -1.13164691975313053263e+03) (46, 3.91312012099570665669e+02) (47, -4.57628213901995650303e+02) (48, -1.50000000000000000000e+03) (49, -1.50000000000000000000e+03) (50, 1.50000000000000000000e+03) (51, 1.50000000000000000000e+03) (52, -1.45341651113145871932e+03) (53, 1.50000000000000000000e+03) (54, 1.33851053601472995069e+03) (55, -1.49513565380892373469e+02) (56, 1.50000000000000000000e+03) (57, -1.50000000000000000000e+03) (58, -1.49006160533930301426e+03) (59, 7.57808601984839697252e+02) (60, 1.37798052594180262531e+03) (61, 1.50000000000000000000e+03) (62, 1.50000000000000000000e+03) (63, 1.50000000000000000000e+03) (64, -1.49214767315918925306e+03) (0, 1.50000000000000000000e+03) (1, 1.50000000000000000000e+03) (2, -1.50000000000000000000e+03) (3, 1.49567167809676698198e+03) (4, 1.40720319314679341005e+03) (5, -1.50000000000000000000e+03) (6, -1.50000000000000000000e+03) (7, -1.50000000000000000000e+03) (8, 1.50000000000000000000e+03) (9, -1.50000000000000000000e+03) (10, 1.49850933912387495184e+03) (11, 1.15826004955307871569e+03) (12, -1.50000000000000000000e+03) (13, 1.39432614889512228729e+03) (14, 1.08074888952424316813e+03) (15, -1.50000000000000000000e+03) (16, 1.50000000000000000000e+03) (17, 1.50000000000000000000e+03) (18, 1.50000000000000000000e+03) (19, 1.50000000000000000000e+03) (20, 1.26322152809790145511e+03) (21, 1.50000000000000000000e+03) (22, 1.49165472835642208338e+03) (23, 1.50000000000000000000e+03) (24, 1.50000000000000000000e+03) (25, 1.50000000000000000000e+03) (26, 1.50000000000000000000e+03) (27, 1.50000000000000000000e+03) (28, 8.28656518712162011298e+01) (29, -1.50000000000000000000e+03) (30, -1.50000000000000000000e+03) (31, 1.50000000000000000000e+03) (32, 1.50000000000000000000e+03) (33, 1.50000000000000000000e+03) (34, 9.71435196524028469867e+02) (35, 1.48436690316969952619e+03) (36, 1.50000000000000000000e+03) (37, -1.50000000000000000000e+03) (38, -1.50000000000000000000e+03) (39, 1.50000000000000000000e+03) (40, 1.50000000000000000000e+03) (41, -2.83166805010740858961e+02) (42, 1.50000000000000000000e+03) (43, -1.50000000000000000000e+03) (44, -1.47891541977859515100e+03) (45, 1.50000000000000000000e+03) (46, 1.50000000000000000000e+03) (47, -5.65799990797042710255e+02) (48, 1.50000000000000000000e+03) (49, -1.50000000000000000000e+03) (50, 1.50000000000000000000e+03) (51, -1.50000000000000000000e+03) (52, -8.87452778846380283539e+02) (53, 1.50000000000000000000e+03) (54, 3.24341260548183129231e+02) (55, -1.50000000000000000000e+03) (56, -1.50000000000000000000e+03) (57, 1.50000000000000000000e+03) (58, -1.50000000000000000000e+03) (59, 1.50000000000000000000e+03) (60, 1.50000000000000000000e+03) (61, 1.00135876972172218302e+03) (62, -1.50000000000000000000e+03) (63, -1.50000000000000000000e+03) (64, 1.32742689762840086587e+03) (0, 1.50000000000000000000e+03) (1, 3.90043555941277588772e+01) (2, 2.63031475722478713664e+00) (3, -2.99542756075590865805e+00) (4, -2.73647407094050887366e+00) (5, 9.69890913269661771555e-04) (6, 3.99949561378378670717e-01) (7, -1.49149861143676787378e+01) (8, -1.50000000000000000000e+03) (9, -1.59663916578720836981e+01) (10, -4.60497843392615191505e+00) (11, -8.03868836323382573994e-01) (12, -3.72211903694753631910e+00) (13, 4.22460782227148834433e-01) (14, -4.48613027546493459141e+00) (15, 1.13556492412328093877e+01) (16, 1.49035872883389913568e+02) (17, 4.42275992438908804871e+00) (18, 8.37682479133859514420e-01) (19, 4.07183569645413534488e+00) (20, 3.88268557989589346846e+00) (21, -3.06215573169307475609e+00) (22, 1.99602416508290136932e+00) (23, 5.06109500094223374589e+00) (24, -1.46500803925430687968e+02) (25, 7.85793789024117561581e-01) (26, 9.89486134210165735325e-01) (27, 1.50144394392985380815e-01) (28, -8.60502293093988401829e-01) (29, -1.96080085454265118372e+00) (30, -2.46051420818190669237e+00) (31, 1.96562340024174119435e+02) (32, 1.50000000000000000000e+03) (33, 3.00792502254761018321e+00) (34, 2.69328202727096943647e+00) (35, -7.12879831835298571896e-01) (36, 1.27789653277267523102e+00) (37, 5.26634955229175449887e+00) (38, -5.95252681494210822422e+00) (39, 1.50000000000000000000e+03) (40, 5.86469890253039949357e+00) (41, -4.57070238509886284106e+00) (42, 1.04858701078886240587e+00) (43, 1.36299251885715322352e+00) (44, 2.16213563164060396105e+00) (45, -1.72448707674546719559e+00) (46, -1.18676485029988218467e-01) (47, 1.64683149271951165815e+01) (48, 4.91424662277409538547e+01) (49, 3.69289910396106080270e+00) (50, -3.77172220762615861833e-01) (51, 2.90035384579495536528e+00) (52, -2.33661952150468837930e-01) (53, -2.28168637342112967659e+00) (54, 1.41434311631643150342e+00) (55, 1.93969992422043335800e+00) (56, -5.07894932875800293459e+01) (57, -2.45121501099633469778e+01) (58, -5.20571772645861230444e+00) (59, 3.38477565065839647307e-01) (60, 4.47746863363065683572e-01) (61, 4.27868001144423892868e+00) (62, -6.15429831261648985219e+00) (63, 3.75620607685993901370e+00) (64, -2.50824831245368571331e+01) (0, 1.50000000000000000000e+03) (1, 1.50000000000000000000e+03) (2, 1.20457756240137359782e+03) (3, -1.48310545153360226323e+03) (4, 1.50000000000000000000e+03) (5, 1.50000000000000000000e+03) (6, 1.50000000000000000000e+03) (7, -1.50000000000000000000e+03) (8, 1.50000000000000000000e+03) (9, 1.50000000000000000000e+03) (10, -1.50000000000000000000e+03) (11, -1.49516080347466413514e+03) (12, 1.47191287103958802618e+03) (13, 1.50000000000000000000e+03) (14, 1.24503638671788326064e+03) (15, -1.50000000000000000000e+03) (16, 1.50000000000000000000e+03) (17, 1.37978424247742532316e+03) (18, -1.50000000000000000000e+03) (19, 1.43136477272642946446e+03) (20, 1.50000000000000000000e+03) (21, -1.50000000000000000000e+03) (22, 2.12945909447096028089e+02) (23, 1.50000000000000000000e+03) (24, -1.50000000000000000000e+03) (25, 1.50000000000000000000e+03) (26, -1.50000000000000000000e+03) (27, 1.50000000000000000000e+03) (28, 1.50000000000000000000e+03) (29, -1.50000000000000000000e+03) (30, -1.50000000000000000000e+03) (31, 1.50000000000000000000e+03) (32, 1.50000000000000000000e+03) (33, 4.91858637699296650680e+02) (34, -1.50000000000000000000e+03) (35, -1.46721187513907102584e+03) (36, 1.50000000000000000000e+03) (37, -1.50000000000000000000e+03) (38, -1.50000000000000000000e+03) (39, 1.50000000000000000000e+03) (40, -7.65799990797042710255e+02) (41, -1.50000000000000000000e+03) (42, -1.50000000000000000000e+03) (43, -1.50000000000000000000e+03) (44, 1.49959010802700095155e+03) (45, 1.47367976908142009052e+03) (46, -1.40141139046280090952e+03) (47, 1.50000000000000000000e+03) (48, -7.65799990797042710255e+02) (49, -1.50000000000000000000e+03) (50, -1.50000000000000000000e+03) (51, -1.50000000000000000000e+03) (52, 1.50000000000000000000e+03) (53, 1.50000000000000000000e+03) (54, -1.50000000000000000000e+03) (55, 6.06261403741413687385e+02) (56, -1.50000000000000000000e+03) (57, 1.50000000000000000000e+03) (58, 1.50000000000000000000e+03) (59, 1.49991759768955762411e+03) (60, 1.50000000000000000000e+03) (61, 1.25876959927265943406e+01) (62, -1.50000000000000000000e+03) (63, 1.32180983159065999644e+03) (64, 6.05993631510137902296e+01) (0, 1.50000000000000000000e+03) (1, 1.50000000000000000000e+03) (2, 1.50000000000000000000e+03) (3, 1.50000000000000000000e+03) (4, -7.30324738055311854623e+02) (5, 1.50000000000000000000e+03) (6, 1.50000000000000000000e+03) (7, -1.48499999940395355225e+03) (8, -1.50000000000000000000e+03) (9, 1.50000000000000000000e+03) (10, 1.40090358896592101701e+03) (11, -3.95614666101057025571e+02) (12, 1.50000000000000000000e+03) (13, 1.50000000000000000000e+03) (14, -1.27505117274284179985e+03) (15, -1.48499999940395355225e+03) (16, 1.50000000000000000000e+03) (17, 1.50000000000000000000e+03) (18, -1.01260893732723536687e+03) (19, 1.50000000000000000000e+03) (20, 1.50000000000000000000e+03) (21, 1.50000000000000000000e+03) (22, -1.39972790083108770887e+03) (23, 1.49237951828201289572e+03) (24, -1.50000000000000000000e+03) (25, -2.59689939175643587532e+02) (26, -1.48233578502627960916e+03) (27, 1.50000000000000000000e+03) (28, 1.50000000000000000000e+03) (29, 1.50000000000000000000e+03) (30, -1.32650904452902250341e+03) (31, 1.50000000000000000000e+03) (32, 1.50000000000000000000e+03) (33, -1.50000000000000000000e+03) (34, -1.50000000000000000000e+03) (35, 1.06929547334099538602e+03) (36, -6.07881922058412442311e+02) (37, -1.50000000000000000000e+03) (38, -1.50000000000000000000e+03) (39, 1.50000000000000000000e+03) (40, 1.50000000000000000000e+03) (41, -1.50000000000000000000e+03) (42, -1.50000000000000000000e+03) (43, -1.39553254545183403934e+03) (44, 1.41825887079780522981e+03) (45, -1.50000000000000000000e+03) (46, -1.50000000000000000000e+03) (47, -1.50000000000000000000e+03) (48, 1.50000000000000000000e+03) (49, 1.50000000000000000000e+03) (50, -1.50000000000000000000e+03) (51, -1.32925558556379996844e+03) (52, 1.50000000000000000000e+03) (53, -6.86016476568389748536e+02) (54, -1.50000000000000000000e+03) (55, 1.50000000000000000000e+03) (56, -1.50000000000000000000e+03) (57, 1.50000000000000000000e+03) (58, 1.50000000000000000000e+03) (59, 6.54883485802187237823e+02) (60, -3.86883398151984692959e+02) (61, 1.50000000000000000000e+03) (62, 1.50000000000000000000e+03) (63, 1.50000000000000000000e+03) (64, -8.70807251486715472311e+02) (0, 1.50000000000000000000e+03) (1, -1.50000000000000000000e+03) (2, -9.32157592447498018373e+02) (3, -1.42589666675665216644e+03) (4, -1.47095788854844681737e+03) (5, 1.50000000000000000000e+03) (6, 1.50000000000000000000e+03) (7, 1.50000000000000000000e+03) (8, -1.50000000000000000000e+03) (9, 1.50000000000000000000e+03) (10, -1.47337392690818614938e+03) (11, 1.77599495667468403326e+02) (12, 1.50000000000000000000e+03) (13, -1.50000000000000000000e+03) (14, 1.50000000000000000000e+03) (15, 1.50000000000000000000e+03) (16, 1.50000000000000000000e+03) (17, -1.50000000000000000000e+03) (18, -1.50000000000000000000e+03) (19, -1.50000000000000000000e+03) (20, 1.50000000000000000000e+03) (21, -1.79283436113969088410e+02) (22, 1.50000000000000000000e+03) (23, 1.50000000000000000000e+03) (24, 1.50000000000000000000e+03) (25, -1.50000000000000000000e+03) (26, -1.50000000000000000000e+03) (27, -1.50000000000000000000e+03) (28, 4.81955033180155510308e+02) (29, 1.50000000000000000000e+03) (30, 1.50000000000000000000e+03) (31, -1.07760002760887209661e+03) (32, 1.50000000000000000000e+03) (33, 1.50000000000000000000e+03) (34, 7.83910943331320936522e+02) (35, 8.14165125830089209558e+02) (36, 1.50000000000000000000e+03) (37, 1.50000000000000000000e+03) (38, 1.50000000000000000000e+03) (39, 1.50000000000000000000e+03) (40, 1.50000000000000000000e+03) (41, 1.50000000000000000000e+03) (42, 1.37189334891577431108e+02) (43, 1.50000000000000000000e+03) (44, 1.50000000000000000000e+03) (45, -1.50000000000000000000e+03) (46, -1.50000000000000000000e+03) (47, -9.05461413540417538570e+02) (48, 1.32353272887594175700e+03) (49, 1.50000000000000000000e+03) (50, -1.50000000000000000000e+03) (51, 1.50000000000000000000e+03) (52, -1.32318084910285415390e+03) (53, -1.50000000000000000000e+03) (54, 1.30241775237094543627e+02) (55, 1.50000000000000000000e+03) (56, 1.50000000000000000000e+03) (57, -1.50000000000000000000e+03) (58, 1.50000000000000000000e+03) (59, -1.50000000000000000000e+03) (60, -1.50000000000000000000e+03) (61, -1.42682260467594664988e+03) (62, 1.50000000000000000000e+03) (63, 1.50000000000000000000e+03) (64, 8.62586505292843412462e+02) (0, 1.50000000000000000000e+03) (1, -3.50349964128462776358e+00) (2, -8.63341046235771236717e-01) (3, 8.38626292365497461034e-01) (4, 8.14033081906977318276e-01) (5, -2.08103628018192265969e+00) (6, -4.47447058269647257589e+00) (7, 2.72028440652448511017e+00) (8, -2.98113043914121256250e+01) (9, 1.91488942340450774005e+00) (10, 2.33230835813788006661e+00) (11, 4.56327298713293139087e-01) (12, 9.68338785829523929216e-01) (13, 1.43186824176976479350e+00) (14, 2.80711626560508165085e+00) (15, -2.24043115734120679150e+00) (16, -4.59771534692842038794e+01) (17, -3.63900181686480772569e+00) (18, -2.04243535320321711879e+00) (19, -1.72510727583278899999e+00) (20, 1.13968376792435610589e+00) (21, 2.05733774672642732995e+00) (22, 1.97564297508433206474e+00) (23, 9.81817453036040532766e+00) (24, 1.75759788707373729721e+02) (25, 1.23651143557940379480e-01) (26, -3.69149296272153981668e-01) (27, -1.94821314816098634104e+00) (28, -1.03521549531327461402e+00) (29, -1.08264425421870646993e+00) (30, -5.03649353131003577055e-02) (31, -5.87142265526222786320e+02) (32, 1.50000000000000000000e+03) (33, -1.73947007225427263677e+00) (34, -6.20733235488638013244e-01) (35, -1.42410912850447624045e+00) (36, -2.01686167265307370045e+00) (37, -9.88281530932256346844e-01) (38, 1.63580813213648856852e+00) (39, 1.50000000000000000000e+03) (40, 8.35073460558849767210e+00) (41, 2.55372955751200070296e+00) (42, -1.67634938386684062550e+00) (43, -1.58968098488560083403e+00) (44, -4.19069080779905345224e+00) (45, -1.42423137933171073399e+00) (46, -4.03952427677539205320e+00) (47, -7.96732475511831594872e+00) (48, 6.69541336844152965568e+01) (49, 1.33222107719607363308e+00) (50, -1.74343372499356807914e+00) (51, 7.63586310457810113483e-01) (52, 3.28295359464477476408e+00) (53, 2.37850388914190347123e+00) (54, 3.96041002931850982804e+00) (55, -6.94184427499750000834e+00) (56, -2.25800750279637071571e+02) (57, 5.26137240075521628313e+00) (58, 1.42500071456612276144e+00) (59, 1.78861364053457178036e-01) (60, 2.07578411639465887362e+00) (61, -3.87812854283989705273e-01) (62, 3.04751241358239699508e+00) (63, -3.37695313671587893367e+00) (64, -2.13581265921777818662e+00) (0, 1.50000000000000000000e+03) (1, 1.50000000000000000000e+03) (2, -2.72014385770994351788e+02) (3, 1.50000000000000000000e+03) (4, 5.66696392405005553883e+02) (5, 1.50000000000000000000e+03) (6, -1.44633466279172102986e+03) (7, -1.50000000000000000000e+03) (8, 1.50000000000000000000e+03) (9, -1.47976912934875235806e+03) (10, 1.21912292641770181945e+03) (11, -5.75106026924366005915e+02) (12, -1.18982554653542251799e+03) (13, 1.50000000000000000000e+03) (14, 1.61911692712073005396e+02) (15, -1.50000000000000000000e+03) (16, -1.50000000000000000000e+03) (17, 1.50000000000000000000e+03) (18, 1.50000000000000000000e+03) (19, 1.49999851397240740880e+03) (20, -1.50000000000000000000e+03) (21, -2.09315243095472624191e+02) (22, -1.50000000000000000000e+03) (23, -1.50000000000000000000e+03) (24, -1.50000000000000000000e+03) (25, 1.50000000000000000000e+03) (26, 1.50000000000000000000e+03) (27, 1.50000000000000000000e+03) (28, -1.48710635543674084147e+03) (29, -1.50000000000000000000e+03) (30, -1.50000000000000000000e+03) (31, -1.50000000000000000000e+03) (32, 1.50000000000000000000e+03) (33, -1.50000000000000000000e+03) (34, -1.35970736991298963403e+03) (35, -6.28897310783487455410e+02) (36, -1.40917819268220023332e+03) (37, -1.50000000000000000000e+03) (38, -1.50000000000000000000e+03) (39, 1.50000000000000000000e+03) (40, -1.50000000000000000000e+03) (41, -1.50000000000000000000e+03) (42, 1.35847522042269520171e+03) (43, -1.50000000000000000000e+03) (44, -1.50000000000000000000e+03) (45, 1.50000000000000000000e+03) (46, 1.50000000000000000000e+03) (47, 1.50000000000000000000e+03) (48, -1.50000000000000000000e+03) (49, -1.50000000000000000000e+03) (50, 1.50000000000000000000e+03) (51, -1.43486998296453930379e+03) (52, 1.50000000000000000000e+03) (53, 1.50000000000000000000e+03) (54, 1.50000000000000000000e+03) (55, -1.50000000000000000000e+03) (56, 1.02721657251253009235e+03) (57, 1.50000000000000000000e+03) (58, -8.34326910653637696669e+02) (59, 1.50000000000000000000e+03) (60, 1.50000000000000000000e+03) (61, 1.50000000000000000000e+03) (62, -1.50000000000000000000e+03) (63, -1.50000000000000000000e+03) (64, -1.49795312045568812209e+03) (0, 1.50000000000000000000e+03) (1, -1.50000000000000000000e+03) (2, -8.75503984161826338095e+02) (3, 1.24852920767075715958e+03) (4, -1.50000000000000000000e+03) (5, -9.40295841113924325327e+02) (6, 1.50000000000000000000e+03) (7, 1.50000000000000000000e+03) (8, -1.50000000000000000000e+03) (9, -1.50000000000000000000e+03) (10, -1.33156096105590040679e+03) (11, -7.47309222145131002435e+02) (12, 1.50000000000000000000e+03) (13, 1.41085933963456227502e+03) (14, -1.08174584429836568233e+03) (15, -7.56585989754166803323e+02) (16, -1.50000000000000000000e+03) (17, 1.50000000000000000000e+03) (18, 1.50000000000000000000e+03) (19, 1.50000000000000000000e+03) (20, 1.07592589356922735533e+03) (21, 1.50000000000000000000e+03) (22, 1.50000000000000000000e+03) (23, -1.50000000000000000000e+03) (24, -1.50000000000000000000e+03) (25, 1.50000000000000000000e+03) (26, 7.36158400431963855226e+02) (27, 9.95056507954396806781e+02) (28, 2.84181803683681209804e+02) (29, 1.50000000000000000000e+03) (30, 1.50000000000000000000e+03) (31, -1.50000000000000000000e+03) (32, 1.50000000000000000000e+03) (33, -1.50000000000000000000e+03) (34, -1.50000000000000000000e+03) (35, 1.49986987186323221977e+03) (36, -1.50000000000000000000e+03) (37, -1.50000000000000000000e+03) (38, 1.50000000000000000000e+03) (39, 1.50000000000000000000e+03) (40, -1.50000000000000000000e+03) (41, -1.33628406345032772151e+03) (42, -2.52759070915389855827e+02) (43, 1.50000000000000000000e+03) (44, -1.23110349274254895136e+03) (45, -1.50000000000000000000e+03) (46, -1.50000000000000000000e+03) (47, -1.50000000000000000000e+03) (48, -1.50000000000000000000e+03) (49, -1.44034122868175018084e+02) (50, -1.23453654097072373474e+02) (51, 1.50000000000000000000e+03) (52, 1.46244269398167011786e+03) (53, -1.36499644222879010158e+03) (54, -1.50000000000000000000e+03) (55, 1.50000000000000000000e+03) (56, 7.84200009202957289745e+02) (57, -1.50000000000000000000e+03) (58, -1.41955780444378592620e+03) (59, -1.44573554331145828655e+03) (60, -1.50000000000000000000e+03) (61, 1.46022836983246929776e+03) (62, 1.50000000000000000000e+03) (63, 1.50000000000000000000e+03) (64, 1.74716244496455942681e+02) (0, 1.50000000000000000000e+03) (1, -4.12804620895427998306e+00) (2, 5.95646103904565737963e-01) (3, 5.81531299121259426244e+00) (4, 1.87974917400157370828e+00) (5, 5.65258741031595013382e-01) (6, 5.01612071378725854487e+00) (7, 5.67416278236817372971e+00) (8, 3.72967516762613584547e+01) (9, 1.07077363158359584183e-01) (10, 2.52941799481697648933e-01) (11, 4.49557575046651169970e+00) (12, 2.97798066295236063539e+00) (13, -2.09537384355421990589e-01) (14, -1.29180414105449270501e+00) (15, -1.52707694392643822390e+00) (16, -3.18722908195520204799e+01) (17, 2.08170246524419022549e+00) (18, -1.18275518541972490816e+00) (19, -3.27574419022266383195e+00) (20, -5.89936585635977284170e-01) (21, 1.42697261027476707262e+00) (22, 5.55890188244568372866e-01) (23, -1.98303415208980915452e+01) (24, 9.18342651500392292974e+01) (25, -7.38511404439036733827e-01) (26, -7.54029581739155130293e-01) (27, 7.42720948962349303279e-02) (28, -4.76668311620902507286e-02) (29, -7.34867793527731461012e-01) (30, 1.58113399594965065020e+00) (31, -1.50000000000000000000e+03) (32, 1.50000000000000000000e+03) (33, -1.58517406681092598575e+00) (34, 1.19371101691995562533e+00) (35, -2.95705066406776007071e+00) (36, -1.51677420435355192474e+00) (37, -1.56156923335885400306e+00) (38, 9.35172028070757832552e+00) (39, 1.50000000000000000000e+03) (40, -1.50000000000000000000e+03) (41, -6.50575333411696599129e-01) (42, -3.65450718718405331842e+00) (43, -5.27414233719893132957e+00) (44, -1.88082975862361667652e+00) (45, 4.56966584823806876159e+00) (46, 4.00093094828860074141e-01) (47, -1.28985411942968575261e+01) (48, -1.50000000000000000000e+03) (49, -2.41427461485422822918e+00) (50, -1.63719899892142373155e+00) (51, 3.54818007478771180185e-01) (52, -1.64974774678220459379e+00) (53, -5.52023722736277289158e+00) (54, -7.81970464081833460668e-01) (55, 4.59825141858363539704e-01) (56, -6.26738598285144007605e+02) (57, -7.62881274325558633720e-01) (58, 3.27538654332565215554e+00) (59, -5.76436216427837488929e-01) (60, -1.68193855029638839049e+00) (61, -3.05347498252048731027e-02) (62, -3.56964524200084909467e+00) (63, -7.57909038143221724937e+00) (64, -9.77563658043097749584e-01) (0, 1.50000000000000000000e+03) (1, -1.50000000000000000000e+03) (2, -1.34980121398347341710e+03) (3, -1.42667460205793759087e+03) (4, -1.50000000000000000000e+03) (5, -1.50000000000000000000e+03) (6, 1.50000000000000000000e+03) (7, -1.24373411609451090953e+03) (8, -1.50000000000000000000e+03) (9, -1.50000000000000000000e+03) (10, 1.50000000000000000000e+03) (11, -1.35977417363114477666e+03) (12, -1.46854598569565609978e+03) (13, -1.50000000000000000000e+03) (14, 8.37207411373001093580e+01) (15, -1.44497817153283062908e+03) (16, -1.50000000000000000000e+03) (17, 1.50000000000000000000e+03) (18, 1.50000000000000000000e+03) (19, 1.46964586300427185961e+03) (20, -1.50000000000000000000e+03) (21, 1.43060263890291389544e+03) (22, 1.32347387715567833766e+03) (23, -1.50000000000000000000e+03) (24, -1.50000000000000000000e+03) (25, -1.50000000000000000000e+03) (26, 1.50000000000000000000e+03) (27, 1.50000000000000000000e+03) (28, -1.25935787757144862553e+03) (29, 1.50000000000000000000e+03) (30, 1.50000000000000000000e+03) (31, -1.50000000000000000000e+03) (32, 1.50000000000000000000e+03) (33, -1.50000000000000000000e+03) (34, -1.40130006876338211441e+03) (35, 1.50000000000000000000e+03) (36, -1.50000000000000000000e+03) (37, 4.30690503877882747474e+02) (38, 1.20438969050403989058e+03) (39, 1.50000000000000000000e+03) (40, 6.04522814993012616469e+02) (41, -1.47500000000000000000e+03) (42, -1.47500000000000000000e+03) (43, 1.45344600662817470038e+03) (44, -1.50000000000000000000e+03) (45, -3.37349970745945370254e+02) (46, 1.37601500134859406899e+03) (47, -1.57999907970427102555e+01) (48, 6.95338576660578837618e+02) (49, 1.50000000000000000000e+03) (50, 3.80156999514509323035e+02) (51, 4.38849382980972734458e+02) (52, -1.50000000000000000000e+03) (53, -1.48267521599919655273e+03) (54, 1.50000000000000000000e+03) (55, -1.50000000000000000000e+03) (56, 7.84200009202957289745e+02) (57, -1.30458352791900006196e+03) (58, -1.49392126012025255477e+03) (59, -1.44337270361044488709e+03) (60, 1.46395110797023608029e+03) (61, 1.44556715707730222675e+03) (62, 1.50000000000000000000e+03) (63, -1.50000000000000000000e+03) (64, 1.27206954642026903457e+03) (0, 1.50000000000000000000e+03) (1, -1.50000000000000000000e+03) (2, 6.42774132808200420186e+02) (3, 1.39396108277302005263e+03) (4, -1.47839999742507916380e+03) (5, -1.50000000000000000000e+03) (6, -1.50000000000000000000e+03) (7, -1.50000000000000000000e+03) (8, 1.50000000000000000000e+03) (9, -1.50000000000000000000e+03) (10, -1.48184586987245029377e+03) (11, 2.02961480233999253642e+02) (12, 1.49945728804671966827e+03) (13, 1.50000000000000000000e+03) (14, -1.50000000000000000000e+03) (15, -1.50000000000000000000e+03) (16, 1.48815333968187360369e+02) (17, 1.50000000000000000000e+03) (18, 1.50000000000000000000e+03) (19, 1.50000000000000000000e+03) (20, 1.49836796311280158989e+03) (21, 1.50000000000000000000e+03) (22, 1.50000000000000000000e+03) (23, 1.37887620376474706063e+03) (24, -1.50000000000000000000e+03) (25, 1.50000000000000000000e+03) (26, 1.50000000000000000000e+03) (27, 1.50000000000000000000e+03) (28, -8.46811422887210483168e+02) (29, 9.56869940647918042487e+02) (30, -6.13828210587977309842e+02) (31, 1.50000000000000000000e+03) (32, 1.50000000000000000000e+03) (33, 1.29145120592238299650e+03) (34, -1.30243597033996161372e+03) (35, -1.38166481134155856125e+03) (36, -1.50000000000000000000e+03) (37, -1.50000000000000000000e+03) (38, 1.22490254059244443852e+03) (39, 1.50000000000000000000e+03) (40, -1.26579999079704271026e+03) (41, 1.39122297477976280788e+03) (42, 1.39625462070747880716e+03) (43, -1.50000000000000000000e+03) (44, 1.09859112906058089720e+03) (45, 1.42950146821810926667e+03) (46, -1.26878954097571227067e+03) (47, -1.50000000000000000000e+03) (48, -1.50000000000000000000e+03) (49, -1.50000000000000000000e+03) (50, 1.49792801947608813862e+03) (51, -1.50000000000000000000e+03) (52, 1.48853911969670912185e+03) (53, 1.41969791958634368712e+03) (54, -1.50000000000000000000e+03) (55, 2.36976081090602605173e+02) (56, -1.50000000000000000000e+03) (57, -1.21637178740930653476e+03) (58, -1.50000000000000000000e+03) (59, 1.47236120383263278200e+03) (60, 1.50000000000000000000e+03) (61, -1.45896053870849118539e+03) (62, -1.50000000000000000000e+03) (63, -9.20000920295728974452e+00) (64, -1.36527194990573002542e+03) (0, 1.50000000000000000000e+03) (1, -6.49175974703787801445e+02) (2, -7.32759132741633493424e+02) (3, 1.50000000000000000000e+03) (4, -1.48231617986494416073e+03) (5, 1.50000000000000000000e+03) (6, 1.50000000000000000000e+03) (7, -1.05999999642372131348e+03) (8, -1.50000000000000000000e+03) (9, -1.37178158243043981201e+03) (10, 1.47707999907493604042e+03) (11, 1.37536737818863662142e+03) (12, 1.50000000000000000000e+03) (13, -1.36872027568871453695e+03) (14, -5.74538584671443231855e+02) (15, -1.50000000000000000000e+03) (16, -1.50000000000000000000e+03) (17, 5.06971769718647578884e+02) (18, 1.41518883284475577966e+03) (19, -1.50000000000000000000e+03) (20, -1.50000000000000000000e+03) (21, -1.50000000000000000000e+03) (22, -1.50000000000000000000e+03) (23, -1.50000000000000000000e+03) (24, -1.50000000000000000000e+03) (25, -1.24080688575090519521e+02) (26, 2.51079972872733435452e+02) (27, -1.50000000000000000000e+03) (28, -1.50000000000000000000e+03) (29, 1.47707999907493604042e+03) (30, -1.50000000000000000000e+03) (31, -1.50000000000000000000e+03) (32, 1.50000000000000000000e+03) (33, -1.50000000000000000000e+03) (34, 1.50000000000000000000e+03) (35, 1.45742722562303669065e+02) (36, -1.50000000000000000000e+03) (37, -7.13059124640438767528e+02) (38, 2.14179105784861434358e+02) (39, 1.50000000000000000000e+03) (40, -1.50000000000000000000e+03) (41, -1.50000000000000000000e+03) (42, 1.50000000000000000000e+03) (43, 1.50000000000000000000e+03) (44, -1.50000000000000000000e+03) (45, -1.50000000000000000000e+03) (46, -8.51722499842056663510e+02) (47, 1.50000000000000000000e+03) (48, -1.50000000000000000000e+03) (49, -1.50000000000000000000e+03) (50, 1.50000000000000000000e+03) (51, 1.50000000000000000000e+03) (52, -1.37125032734352589614e+03) (53, -1.32929676280775856867e+03) (54, 1.50000000000000000000e+03) (55, 1.34079999079704271026e+03) (56, 1.50000000000000000000e+03) (57, 9.41628227736214057586e+02) (58, 1.55669518594356077301e+02) (59, -1.34643125899162509995e+03) (60, -1.50000000000000000000e+03) (61, 1.50000000000000000000e+03) (62, 1.50000000000000000000e+03) (63, 8.66661420120770458198e+02) (64, 2.16079403032346249347e+02) (0, 1.50000000000000000000e+03) (1, -1.50000000000000000000e+03) (2, -1.50000000000000000000e+03) (3, 1.43000172028305041749e+03) (4, 1.27023018385248150253e+02) (5, -1.50000000000000000000e+03) (6, -1.50000000000000000000e+03) (7, 1.50000000000000000000e+03) (8, 1.19079999079704271026e+03) (9, 8.72082272082941926783e+02) (10, 1.38289551666230909177e+03) (11, 4.48531630293804255416e+02) (12, -1.50000000000000000000e+03) (13, 1.50000000000000000000e+03) (14, 1.50000000000000000000e+03) (15, 1.50000000000000000000e+03) (16, 1.50000000000000000000e+03) (17, -1.33934878904124320798e+03) (18, -1.50000000000000000000e+03) (19, -4.09874537270073915352e+02) (20, 1.50000000000000000000e+03) (21, 1.50000000000000000000e+03) (22, 1.50000000000000000000e+03) (23, 1.46999999880790710449e+03) (24, 1.50000000000000000000e+03) (25, -1.50000000000000000000e+03) (26, -1.50000000000000000000e+03) (27, 1.48140369063927528259e+03) (28, 6.10880476856505538308e+02) (29, -3.21097062370090384320e+02) (30, 1.50000000000000000000e+03) (31, -1.45404190098781600682e+03) (32, 1.50000000000000000000e+03) (33, 1.27980280753757006096e+03) (34, -1.23147445271576611958e+03) (35, 1.50000000000000000000e+03) (36, 1.50000000000000000000e+03) (37, 9.74369778481116441071e+02) (38, 1.50000000000000000000e+03) (39, 1.50000000000000000000e+03) (40, 1.50000000000000000000e+03) (41, 1.50000000000000000000e+03) (42, 1.50000000000000000000e+03) (43, 1.11342555147737925836e+03) (44, 1.50000000000000000000e+03) (45, 1.50000000000000000000e+03) (46, 1.16512316111258974161e+03) (47, -1.50000000000000000000e+03) (48, 1.50000000000000000000e+03) (49, -4.97466652814404937999e+02) (50, -1.47652310272504041677e+03) (51, -1.50000000000000000000e+03) (52, -1.50000000000000000000e+03) (53, -9.12440303211562650176e+02) (54, -3.93263362479869101662e+02) (55, -6.98281809893620106777e+02) (56, -1.50000000000000000000e+03) (57, -1.50000000000000000000e+03) (58, -1.50000000000000000000e+03) (59, -4.50762070551570388943e+02) (60, 1.46642617430479481300e+03) (61, -1.50000000000000000000e+03) (62, -1.50000000000000000000e+03) (63, 1.50000000000000000000e+03) (64, -9.01883326116266516692e+02) (0, 1.50000000000000000000e+03) (1, 1.50000000000000000000e+03) (2, 1.49049599922752395287e+03) (3, -1.49640285122620844049e+03) (4, -1.05381611257576582830e+03) (5, 1.50000000000000000000e+03) (6, 1.50000000000000000000e+03) (7, -1.50000000000000000000e+03) (8, 4.89767402428147818227e+02) (9, -1.49295880983470260617e+03) (10, 3.06323291535293975585e+01) (11, 9.57587150945149005565e+02) (12, 1.50000000000000000000e+03) (13, -7.87946312816110093991e+02) (14, -1.46699999797344207764e+03) (15, -1.50000000000000000000e+03) (16, 2.68938609514659503930e+02) (17, 1.50000000000000000000e+03) (18, 1.19739987638370075729e+03) (19, 1.22770944457779955883e+03) (20, -1.50000000000000000000e+03) (21, -1.50000000000000000000e+03) (22, -1.50000000000000000000e+03) (23, 1.36879999163150773711e+03) (24, -1.50000000000000000000e+03) (25, 1.50000000000000000000e+03) (26, 1.50000000000000000000e+03) (27, -1.50000000000000000000e+03) (28, -8.61520489035413902457e+02) (29, 5.58698924488476720285e+01) (30, 1.50000000000000000000e+03) (31, 1.50000000000000000000e+03) (32, 1.50000000000000000000e+03) (33, 1.50000000000000000000e+03) (34, 8.86714964987852908962e+02) (35, -1.50000000000000000000e+03) (36, -1.50000000000000000000e+03) (37, -1.50000000000000000000e+03) (38, 1.50000000000000000000e+03) (39, 1.50000000000000000000e+03) (40, -1.50000000000000000000e+03) (41, -1.50000000000000000000e+03) (42, -1.50000000000000000000e+03) (43, 1.50000000000000000000e+03) (44, -1.50000000000000000000e+03) (45, -1.50000000000000000000e+03) (46, -1.50000000000000000000e+03) (47, 1.42554863989339855834e+03) (48, -1.50000000000000000000e+03) (49, 5.58425357135809349529e+02) (50, -7.45127357781175646778e+02) (51, 1.50000000000000000000e+03) (52, 1.50000000000000000000e+03) (53, 1.49959798423259894662e+03) (54, -1.50000000000000000000e+03) (55, 1.50000000000000000000e+03) (56, 8.39796304450470643133e+01) (57, 1.50000000000000000000e+03) (58, 1.49990568408303693104e+03) (59, 1.13998958851823726945e+03) (60, -8.88806625192190608686e+02) (61, -7.57773172663192553955e+02) (62, 1.50000000000000000000e+03) (63, 1.50000000000000000000e+03) (64, -2.22370621594314712866e+02) (0, 1.50000000000000000000e+03) (1, -1.42912009177284289763e+03) (2, 1.50000000000000000000e+03) (3, -6.68883810106053260824e+02) (4, -1.44213957608135092414e+03) (5, 1.50000000000000000000e+03) (6, 1.50000000000000000000e+03) (7, 1.31579999079704271026e+03) (8, -1.50000000000000000000e+03) (9, 9.87290100985303638481e+02) (10, -1.09809605140232929443e+03) (11, 2.73445548120804346581e+02) (12, 1.50000000000000000000e+03) (13, -1.50000000000000000000e+03) (14, 1.32604817854768089092e+03) (15, -9.29937935066810950957e+02) (16, -1.50000000000000000000e+03) (17, -1.46452982326578535321e+03) (18, -7.72199968381303278875e+02) (19, -1.50000000000000000000e+03) (20, -1.50000000000000000000e+03) (21, -1.50000000000000000000e+03) (22, -1.47500000000000000000e+03) (23, -1.50000000000000000000e+03) (24, -1.50000000000000000000e+03) (25, -1.50000000000000000000e+03) (26, -1.50000000000000000000e+03) (27, -1.50000000000000000000e+03) (28, -1.50000000000000000000e+03) (29, 1.50000000000000000000e+03) (30, 1.50000000000000000000e+03) (31, -1.50000000000000000000e+03) (32, 1.50000000000000000000e+03) (33, -1.50000000000000000000e+03) (34, -3.29927614978922520095e+02) (35, -1.01811815932708987020e+03) (36, -1.50000000000000000000e+03) (37, 1.36862954122776068289e+03) (38, 1.28167860296503886275e+03) (39, 1.50000000000000000000e+03) (40, -1.50000000000000000000e+03) (41, -1.50000000000000000000e+03) (42, -1.50000000000000000000e+03) (43, 1.50000000000000000000e+03) (44, -1.48497120241181869460e+03) (45, -1.50000000000000000000e+03) (46, -1.50000000000000000000e+03) (47, 1.50000000000000000000e+03) (48, -1.50000000000000000000e+03) (49, 1.50000000000000000000e+03) (50, -7.34719537666172868740e+02) (51, 1.50000000000000000000e+03) (52, 1.49358284883064266069e+03) (53, -6.54988300936252585416e+02) (54, 1.50000000000000000000e+03) (55, 1.50000000000000000000e+03) (56, 1.50000000000000000000e+03) (57, 1.50000000000000000000e+03) (58, 1.50000000000000000000e+03) (59, -2.27118631499968131493e+02) (60, -1.50000000000000000000e+03) (61, 1.50000000000000000000e+03) (62, 1.50000000000000000000e+03) (63, 1.50000000000000000000e+03) (64, 1.08889200929357997438e+02) (0, 1.50000000000000000000e+03) (1, -1.50000000000000000000e+03) (2, -1.50000000000000000000e+03) (3, -5.95303293615033453534e+02) (4, -1.50000000000000000000e+03) (5, -1.50000000000000000000e+03) (6, -1.50000000000000000000e+03) (7, 1.50000000000000000000e+03) (8, 1.50000000000000000000e+03) (9, -1.50000000000000000000e+03) (10, -8.06237538413849506469e+02) (11, -3.31696953597125400393e+02) (12, -3.41410947426286440987e+02) (13, 1.50000000000000000000e+03) (14, -1.50000000000000000000e+03) (15, 6.15074476606881603402e+02) (16, -1.50000000000000000000e+03) (17, 1.50000000000000000000e+03) (18, 1.50000000000000000000e+03) (19, 1.50000000000000000000e+03) (20, -3.02873865426325323824e+01) (21, 1.50000000000000000000e+03) (22, 1.50000000000000000000e+03) (23, 1.05436263045893883827e+03) (24, -2.24799986743926808686e+02) (25, 1.50000000000000000000e+03) (26, 1.50000000000000000000e+03) (27, 1.50000000000000000000e+03) (28, -8.33941334803360291517e+02) (29, 1.50000000000000000000e+03) (30, 1.50000000000000000000e+03) (31, 1.46208177231885088077e+03) (32, 1.50000000000000000000e+03) (33, 1.50000000000000000000e+03) (34, -4.58451954939561403535e+02) (35, -3.56831318560275860818e+02) (36, -1.50000000000000000000e+03) (37, -1.50000000000000000000e+03) (38, 1.50000000000000000000e+03) (39, 1.50000000000000000000e+03) (40, 1.50000000000000000000e+03) (41, 1.50000000000000000000e+03) (42, 2.05243688182793022179e+02) (43, -1.50000000000000000000e+03) (44, 7.25369998042928987303e+00) (45, 1.50000000000000000000e+03) (46, -7.92439984040259901121e+02) (47, -1.50000000000000000000e+03) (48, -4.89261405767971723435e+02) (49, 1.50000000000000000000e+03) (50, 1.46832426557321036853e+03) (51, -1.50000000000000000000e+03) (52, -1.50000000000000000000e+03) (53, -1.50000000000000000000e+03) (54, -1.50000000000000000000e+03) (55, 9.67196596408557297764e+02) (56, -1.50000000000000000000e+03) (57, -1.50000000000000000000e+03) (58, -1.50000000000000000000e+03) (59, 6.76626471008733119561e+02) (60, 1.43247989704933434041e+03) (61, -1.50000000000000000000e+03) (62, -1.50000000000000000000e+03) (63, 1.50000000000000000000e+03) (64, -1.45557626259411767933e+03) (65, -5.28927581698130033772e-01) (66, 5.92544105646555380185e-02) (67, 1.69406158103191178954e-01) (68, 1.10846551931289241666e-01) (69, 8.16062566013213835925e-02) (70, -2.35377787296468271583e-01) (71, -1.03462125294811690956e-01) (72, -6.55307473036921828147e-01) (73, -9.76818601275104003712e-02) (74, 1.14294160820000448298e-01) (75, 7.51320849549845098947e-02) (76, 1.25216082877717876931e-01) (77, 3.59097554769825799692e-01) (78, -1.92635101533078778591e-01) (79, 5.66680876695372578999e-02) (80, 6.71463132435441978352e-02) (81, 1.88125853862016849394e-02) (82, 2.01893431265671025043e-01) (83, -9.45376282022670488825e-02) (84, 2.21669349257241909967e-01) (85, 3.59781097455799003804e-01) (65, -3.97200476478297204164e-01) (66, -1.76402649763229613100e-01) (67, 1.94723887140819507113e-01) (68, 1.98319093305347776690e-01) (69, -2.75315871028121404718e-02) (70, 1.64723341918922350224e+00) (71, 5.07889057767494656037e-02) (72, 1.05037872048092961741e+00) (73, -1.00080271232781362056e-01) (74, -3.00599483269043468714e-02) (75, 1.06505546428420208582e-01) (76, 1.85739204772589872050e-01) (77, 3.41368153370765592403e-01) (78, -1.91477567844371115990e-01) (79, 3.38955943052493546830e-02) (80, -4.62953188263904372168e-02) (81, 6.66618095410780302917e-05) (82, 1.77002678425266124496e-01) (83, -7.18644538171221702871e-02) (84, 3.88130043377825501016e-02) (85, -1.21156316083620696489e+00) (65, 1.34182248627825601028e-01) (66, -2.36881040771163536851e-01) (67, -3.38267158224672542799e-02) (68, -1.67745810714647003437e-01) (69, -3.16366189410357157019e-01) (70, -6.09697121659413254768e-01) (71, 4.70095953518475107025e-02) (72, 1.32777970745637574623e-01) (73, 2.43466078475456537689e-01) (74, 9.81392961556439402671e-01) (75, -1.70743469832800143227e-01) (76, 4.87730035790784541283e-02) (77, -1.19535257673278128010e+00) (78, 9.62961835222252496291e-03) (79, -1.01324649462490062879e-01) (80, 1.82879392144312230561e-01) (81, -2.62679970392193595785e-01) (82, 2.82503214425245063879e-01) (83, 4.77545659386324705675e-01) (84, -2.60312348429368345393e-01) (85, 1.39345134425275207768e+00) (65, 1.31102345813226855986e-01) (66, 6.86095568658875026857e-02) (67, 1.59109409935740096775e-02) (68, 1.08766741667155990292e-02) (69, 1.23605007890144349969e-01) (70, 4.15766134225561856397e-01) (71, 1.35414148117991628428e-01) (72, 7.22196159286135619393e-02) (73, 6.17932300363798099607e-03) (74, 6.22855987936723476395e-01) (75, 1.12537480299637254744e-01) (76, -3.35546579976779446586e-01) (77, 4.01348402589259189988e-01) (78, -2.87286028733350684572e-01) (79, -2.31834152384821426396e-02) (80, -1.13253128406378689164e-01) (81, 1.68959526075294547143e-01) (82, -2.46938946055421937320e-01) (83, -1.97253330725849523875e-01) (84, -2.70940612985394901902e-01) (85, -5.28527290227629897856e-01) (65, 1.70228226260991016838e-01) (66, 1.70838285019360686112e-01) (67, -3.15729714775454806119e-01) (68, -4.50899888655879876875e-01) (69, 1.95373839034734299303e-02) (70, 1.37499342185699563457e-01) (71, -7.72638476766161069742e-02) (72, -2.86908086077381607737e-01) (73, 1.09380277893115857024e-01) (74, 3.25853362330792151180e-01) (75, -5.76607145918868191359e-01) (76, -5.47027904400621822756e-02) (77, -5.30747829176189456213e-01) (78, -5.49841687046081079027e-02) (79, 2.03323381035546216222e-02) (80, -2.36626057494886465893e-01) (81, 2.92558342763384309632e-03) (82, 4.63491034758134537452e-02) (83, -1.24241907960990369264e-01) (84, 3.32659820629367941613e-01) (85, 1.23278616320773770632e+00) (65, -1.31161038397754545204e-03) (66, 9.32469880767471809291e-02) (67, -2.58542723287290721057e-01) (68, -2.51864344046656141174e-01) (69, 1.97261296898861883398e-02) (70, -1.09959347091046003020e-01) (71, 8.34707924344993967836e-02) (72, 1.47660316421216908367e-01) (73, -1.96728649184836956731e-01) (74, -6.27142377322539967821e-01) (75, 2.13486360702357241825e-01) (76, -1.24713767766924110703e-01) (77, 4.61428162711848888211e-01) (78, 1.59589125999225825425e-02) (79, 6.05834549660801136017e-02) (80, 2.21193510098397390362e-02) (81, -5.55284593605266274530e-01) (82, 2.49699536424996537676e-01) (83, -1.21193985914949502181e-03) (84, -1.46307988637625591144e-01) (85, 6.73874486717026210947e-01) (65, 2.42958252888069770048e-01) (66, -3.75117644209945061418e-02) (67, 1.13170654111209217918e-01) (68, 2.31450859571525696667e-01) (69, 7.83863419519836013283e-02) (70, 4.13816641002975993402e-01) (71, -5.08421772690975243281e-02) (72, -6.84358039885537894342e-01) (73, -1.02999680561265294365e-01) (74, -3.12904655383618390818e-01) (75, 3.14607403412787811625e-01) (76, -1.74560543441722421099e-01) (77, 1.12194753782786399432e-01) (78, 2.84696407987719168897e-01) (79, -1.35958236668892951116e-01) (80, 2.70280082524630371754e-01) (81, 1.67063017529171971287e-02) (82, -2.02325507033353307884e-01) (83, 1.55311389628459695089e-01) (84, -3.15046532215393748633e-01) (85, 2.35422942807819085553e-01) (65, 1.17767964211617490178e-01) (66, -3.61606759605396579915e-02) (67, 2.97404130106144304335e-01) (68, 1.04900568946026992445e-01) (69, -4.03047891538463209926e-01) (70, -2.79807549004328748321e-01) (71, -9.97758072421991715206e-02) (72, 6.41779999293588254705e-02) (73, 4.16373438771692139238e-01) (74, -4.97573340896537652522e-01) (75, -4.08179486956939396869e-01) (76, 9.23824613131330324434e-02) (77, 5.78747667531506859717e-01) (78, -1.20226508931031136895e-01) (79, -2.93077149973572148589e-01) (80, 1.49935876468489298619e-01) (81, 2.17727324471242517090e-01) (82, 3.14261573774901256662e-02) (83, 1.55775599483860938133e-01) (84, -1.65945732058775857753e-01) (85, 5.53745598339594358173e-01) (65, -1.38335860524634757240e-01) (66, 2.48449097907780913630e-01) (67, 7.31773245015132495217e-02) (68, 1.51968397011997491397e-01) (69, 2.19220224699654075984e-01) (70, -1.59527128163808362693e+00) (71, -1.96761494046834399529e-02) (72, -8.06363199321975948619e-02) (73, -2.87015473846424173932e-01) (74, -9.64515928147853252028e-01) (75, 1.24918416713353394587e-01) (76, -6.37926457426111620519e-02) (77, -1.06204342618728109215e+00) (78, -3.22840932262521140839e-02) (79, 1.00406285102083311922e-01) (80, -1.54206809538580708052e-01) (81, 2.02012775213297718357e-01) (82, -2.70403711329235685312e-01) (83, -1.96111391867258622046e-01) (84, 3.19504418769522735566e-01) (85, 9.54973272197991440713e-01) (65, 2.26969856570287648045e-01) (66, -1.80030126995167072401e-01) (67, -2.80131981583623623777e-01) (68, 4.61734617666679086900e-02) (69, -2.72357018267410169732e-02) (70, 1.95061302765183519625e-01) (71, -2.17854677006824558327e-02) (72, 3.38867605408907202058e-01) (73, -3.31590467816064715656e-02) (74, 3.67400829114475635517e-01) (75, 1.38991716305611828775e-01) (76, 2.99330819473728970692e-01) (77, 3.52426295990519389267e-01) (78, 5.40698269973631906460e-01) (79, 5.45332723392195004020e-02) (80, -1.16451985379945374688e-01) (81, 4.03016168121570622640e-02) (82, -2.66521441630210187412e-01) (83, 5.53837079813350383062e-02) (84, 3.87488751564761979562e-01) (85, -6.58622062010725928261e-01) 
