FANN_FLO_2.1
num_layers=3
learning_rate=0.070000
connection_rate=1.000000
network_type=0
learning_momentum=0.000000
training_algorithm=2
train_error_function=1
train_stop_function=0
cascade_output_change_fraction=0.010000
quickprop_decay=-0.000100
quickprop_mu=1.750000
rprop_increase_factor=1.200000
rprop_decrease_factor=0.500000
rprop_delta_min=0.000000
rprop_delta_max=50.000000
rprop_delta_zero=0.100000
cascade_output_stagnation_epochs=12
cascade_candidate_change_fraction=0.010000
cascade_candidate_stagnation_epochs=12
cascade_max_out_epochs=150
cascade_min_out_epochs=50
cascade_max_cand_epochs=150
cascade_min_cand_epochs=50
cascade_num_candidate_groups=2
bit_fail_limit=3.49999999999999977796e-01
cascade_candidate_limit=1.00000000000000000000e+03
cascade_weight_multiplier=4.00000000000000022204e-01
cascade_activation_functions_count=10
cascade_activation_functions=3 5 7 8 10 11 14 15 16 17 
cascade_activation_steepnesses_count=4
cascade_activation_steepnesses=2.50000000000000000000e-01 5.00000000000000000000e-01 7.50000000000000000000e-01 1.00000000000000000000e+00 
layer_sizes=65 6 65 
scale_included=0
neurons (num_inputs, activation_function, activation_steepness)=(0, 0, 0.00000000000000000000e+00) (0, 0, 0.00000000000000000000e+00) (0, 0, 0.00000000000000000000e+00) (0, 0, 0.00000000000000000000e+00) (0, 0, 0.00000000000000000000e+00) (0, 0, 0.00000000000000000000e+00) (0, 0, 0.00000000000000000000e+00) (0, 0, 0.00000000000000000000e+00) (0, 0, 0.00000000000000000000e+00) (0, 0, 0.00000000000000000000e+00) (0, 0, 0.00000000000000000000e+00) (0, 0, 0.00000000000000000000e+00) (0, 0, 0.00000000000000000000e+00) (0, 0, 0.00000000000000000000e+00) (0, 0, 0.00000000000000000000e+00) (0, 0, 0.00000000000000000000e+00) (0, 0, 0.00000000000000000000e+00) (0, 0, 0.00000000000000000000e+00) (0, 0, 0.00000000000000000000e+00) (0, 0, 0.00000000000000000000e+00) (0, 0, 0.00000000000000000000e+00) (0, 0, 0.00000000000000000000e+00) (0, 0, 0.00000000000000000000e+00) (0, 0, 0.00000000000000000000e+00) (0, 0, 0.00000000000000000000e+00) (0, 0, 0.00000000000000000000e+00) (0, 0, 0.00000000000000000000e+00) (0, 0, 0.00000000000000000000e+00) (0, 0, 0.00000000000000000000e+00) (0, 0, 0.00000000000000000000e+00) (0, 0, 0.00000000000000000000e+00) (0, 0, 0.00000000000000000000e+00) (0, 0, 0.00000000000000000000e+00) (0, 0, 0.00000000000000000000e+00) (0, 0, 0.00000000000000000000e+00) (0, 0, 0.00000000000000000000e+00) (0, 0, 0.00000000000000000000e+00) (0, 0, 0.00000000000000000000e+00) (0, 0, 0.00000000000000000000e+00) (0, 0, 0.00000000000000000000e+00) (0, 0, 0.00000000000000000000e+00) (0, 0, 0.00000000000000000000e+00) (0, 0, 0.00000000000000000000e+00) (0, 0, 0.00000000000000000000e+00) (0, 0, 0.00000000000000000000e+00) (0, 0, 0.00000000000000000000e+00) (0, 0, 0.00000000000000000000e+00) (0, 0, 0.00000000000000000000e+00) (0, 0, 0.00000000000000000000e+00) (0, 0, 0.00000000000000000000e+00) (0, 0, 0.00000000000000000000e+00) (0, 0, 0.00000000000000000000e+00) (0, 0, 0.00000000000000000000e+00) (0, 0, 0.00000000000000000000e+00) (0, 0, 0.00000000000000000000e+00) (0, 0, 0.00000000000000000000e+00) (0, 0, 0.00000000000000000000e+00) (0, 0, 0.00000000000000000000e+00) (0, 0, 0.00000000000000000000e+00) (0, 0, 0.00000000000000000000e+00) (0, 0, 0.00000000000000000000e+00) (0, 0, 0.00000000000000000000e+00) (0, 0, 0.00000000000000000000e+00) (0, 0, 0.00000000000000000000e+00) (0, 0, 0.00000000000000000000e+00) (65, 4, 5.00000000000000000000e-01) (65, 4, 5.00000000000000000000e-01) (65, 4, 5.00000000000000000000e-01) (65, 4, 5.00000000000000000000e-01) (65, 4, 5.00000000000000000000e-01) (0, 0, 0.00000000000000000000e+00) (6, 6, 5.00000000000000000000e-01) (6, 6, 5.00000000000000000000e-01) (6, 6, 5.00000000000000000000e-01) (6, 6, 5.00000000000000000000e-01) (6, 6, 5.00000000000000000000e-01) (6, 6, 5.00000000000000000000e-01) (6, 6, 5.00000000000000000000e-01) (6, 6, 5.00000000000000000000e-01) (6, 6, 5.00000000000000000000e-01) (6, 6, 5.00000000000000000000e-01) (6, 6, 5.00000000000000000000e-01) (6, 6, 5.00000000000000000000e-01) (6, 6, 5.00000000000000000000e-01) (6, 6, 5.00000000000000000000e-01) (6, 6, 5.00000000000000000000e-01) (6, 6, 5.00000000000000000000e-01) (6, 6, 5.00000000000000000000e-01) (6, 6, 5.00000000000000000000e-01) (6, 6, 5.00000000000000000000e-01) (6, 6, 5.00000000000000000000e-01) (6, 6, 5.00000000000000000000e-01) (6, 6, 5.00000000000000000000e-01) (6, 6, 5.00000000000000000000e-01) (6, 6, 5.00000000000000000000e-01) (6, 6, 5.00000000000000000000e-01) (6, 6, 5.00000000000000000000e-01) (6, 6, 5.00000000000000000000e-01) (6, 6, 5.00000000000000000000e-01) (6, 6, 5.00000000000000000000e-01) (6, 6, 5.00000000000000000000e-01) (6, 6, 5.00000000000000000000e-01) (6, 6, 5.00000000000000000000e-01) (6, 6, 5.00000000000000000000e-01) (6, 6, 5.00000000000000000000e-01) (6, 6, 5.00000000000000000000e-01) (6, 6, 5.00000000000000000000e-01) (6, 6, 5.00000000000000000000e-01) (6, 6, 5.00000000000000000000e-01) (6, 6, 5.00000000000000000000e-01) (6, 6, 5.00000000000000000000e-01) (6, 6, 5.00000000000000000000e-01) (6, 6, 5.00000000000000000000e-01) (6, 6, 5.00000000000000000000e-01) (6, 6, 5.00000000000000000000e-01) (6, 6, 5.00000000000000000000e-01) (6, 6, 5.00000000000000000000e-01) (6, 6, 5.00000000000000000000e-01) (6, 6, 5.00000000000000000000e-01) (6, 6, 5.00000000000000000000e-01) (6, 6, 5.00000000000000000000e-01) (6, 6, 5.00000000000000000000e-01) (6, 6, 5.00000000000000000000e-01) (6, 6, 5.00000000000000000000e-01) (6, 6, 5.00000000000000000000e-01) (6, 6, 5.00000000000000000000e-01) (6, 6, 5.00000000000000000000e-01) (6, 6, 5.00000000000000000000e-01) (6, 6, 5.00000000000000000000e-01) (6, 6, 5.00000000000000000000e-01) (6, 6, 5.00000000000000000000e-01) (6, 6, 5.00000000000000000000e-01) (6, 6, 5.00000000000000000000e-01) (6, 6, 5.00000000000000000000e-01) (6, 6, 5.00000000000000000000e-01) (0, 6, 0.00000000000000000000e+00) 
connections (connected_to_neuron, weight)=(0, 1.57387256622314453125e-02) (1, -7.92854130268096923828e-02) (2, 5.00712469220161437988e-02) (3, -5.25533743202686309814e-02) (4, -6.45305216312408447266e-02) (5, 3.54840829968452453613e-02) (6, -1.89080089330673217773e-02) (7, 1.31132826209068298340e-02) (8, -5.10506331920623779297e-03) (9, -8.00028443336486816406e-04) (10, -4.60788384079933166504e-02) (11, -4.69975732266902923584e-02) (12, -8.81470665335655212402e-02) (13, -8.77158343791961669922e-02) (14, -3.99782247841358184814e-02) (15, 8.59514847397804260254e-02) (16, -1.35025233030319213867e-02) (17, 6.30273446440696716309e-02) (18, -9.93844196200370788574e-02) (19, 4.60453703999519348145e-02) (20, 8.44224914908409118652e-02) (21, 8.88597592711448669434e-02) (22, 6.59458115696907043457e-02) (23, -4.88046966493129730225e-02) (24, -6.05111382901668548584e-02) (25, -1.07291117310523986816e-02) (26, 7.58699253201484680176e-02) (27, -5.41935078799724578857e-02) (28, -3.02897095680236816406e-02) (29, -7.91685134172439575195e-02) (30, 1.48061141371726989746e-02) (31, 4.63972166180610656738e-02) (32, -2.20455229282379150391e-03) (33, -5.19377961754798889160e-02) (34, 8.14788416028022766113e-02) (35, 1.48327574133872985840e-02) (36, 9.41672697663307189941e-02) (37, 6.92684724926948547363e-02) (38, -4.63905185461044311523e-03) (39, 3.14765647053718566895e-02) (40, 2.67868116497993469238e-02) (41, 6.09465688467025756836e-03) (42, 3.28959599137306213379e-02) (43, 8.24071392416954040527e-02) (44, 1.67437046766281127930e-02) (45, 1.14422813057899475098e-02) (46, -8.95459204912185668945e-02) (47, 1.79108232259750366211e-03) (48, -9.72457379102706909180e-02) (49, -9.09668952226638793945e-03) (50, -8.80319178104400634766e-02) (51, 4.76153716444969177246e-02) (52, 7.15022906661033630371e-02) (53, -6.09180405735969543457e-02) (54, -4.94700483977794647217e-02) (55, -4.30967621505260467529e-02) (56, 7.26720169186592102051e-02) (57, -1.30542367696762084961e-03) (58, 5.97497299313545227051e-02) (59, 1.37028098106384277344e-02) (60, -9.67900976538658142090e-02) (61, 4.88240644335746765137e-02) (62, -1.40105113387107849121e-02) (63, -7.46602639555931091309e-02) (64, -1.50936692953109741211e-02) (0, -7.93101415038108825684e-02) (1, 3.44988778233528137207e-02) (2, 2.24340111017227172852e-02) (3, 4.84662428498268127441e-02) (4, -2.78709083795547485352e-02) (5, -2.64473557472229003906e-02) (6, 9.92784574627876281738e-02) (7, -2.71814316511154174805e-02) (8, -3.84010188281536102295e-02) (9, -5.93235343694686889648e-03) (10, 9.49208810925483703613e-02) (11, -6.49597048759460449219e-02) (12, 2.23437324166297912598e-02) (13, -6.88914507627487182617e-02) (14, -5.85454218089580535889e-02) (15, 2.71382406353950500488e-02) (16, -8.75385552644729614258e-02) (17, -6.05295412242412567139e-02) (18, 8.00557360053062438965e-02) (19, 9.67830643057823181152e-02) (20, 3.28897610306739807129e-02) (21, -2.18119248747825622559e-02) (22, 6.94167613983154296875e-03) (23, 6.87298104166984558105e-02) (24, -5.81626631319522857666e-02) (25, 6.01508095860481262207e-02) (26, -4.53545562922954559326e-02) (27, -7.40240439772605895996e-02) (28, 7.78523758053779602051e-02) (29, 6.49566873908042907715e-02) (30, -7.29772150516510009766e-02) (31, 7.20172747969627380371e-02) (32, -5.64704835414886474609e-03) (33, 8.99682715535163879395e-02) (34, 9.66193899512290954590e-02) (35, 8.21776762604713439941e-02) (36, -3.99047993123531341553e-02) (37, -7.99553096294403076172e-02) (38, -8.91695916652679443359e-03) (39, -6.73476532101631164551e-02) (40, 8.80177989602088928223e-02) (41, -8.48905369639396667480e-02) (42, 4.47594597935676574707e-02) (43, 7.21229240298271179199e-02) (44, -3.00395265221595764160e-02) (45, -7.43467509746551513672e-02) (46, 5.40923997759819030762e-02) (47, -6.91422000527381896973e-02) (48, -7.29169100522994995117e-02) (49, 8.54428783059120178223e-02) (50, 3.83867099881172180176e-02) (51, -3.47081571817398071289e-02) (52, 6.00919798016548156738e-02) (53, -3.41239646077156066895e-02) (54, 7.85899683833122253418e-02) (55, 6.15358427166938781738e-02) (56, 3.28597202897071838379e-02) (57, 7.32291564345359802246e-02) (58, -3.74568849802017211914e-02) (59, 6.22207149863243103027e-02) (60, -5.64043894410133361816e-02) (61, 1.14395245909690856934e-02) (62, 6.41517117619514465332e-02) (63, -2.07112729549407958984e-03) (64, -9.45290923118591308594e-03) (0, -7.50071704387664794922e-02) (1, -4.55618910491466522217e-02) (2, 4.12772223353385925293e-02) (3, -5.38561530411243438721e-02) (4, 3.96440252661705017090e-02) (5, 9.71337482333183288574e-02) (6, -7.32077285647392272949e-02) (7, -2.31882184743881225586e-03) (8, 2.75541469454765319824e-02) (9, -9.74309444427490234375e-02) (10, 7.81825110316276550293e-02) (11, 1.34846568107604980469e-02) (12, 3.65402474999427795410e-02) (13, -6.79965913295745849609e-02) (14, -1.86695307493209838867e-02) (15, 2.12333351373672485352e-02) (16, 6.86442479491233825684e-02) (17, -9.60232242941856384277e-02) (18, -6.22868537902832031250e-02) (19, -5.51482290029525756836e-02) (20, -7.62610211968421936035e-02) (21, 8.09950157999992370605e-02) (22, 8.32444950938224792480e-02) (23, 9.01318714022636413574e-02) (24, 4.62342277169227600098e-02) (25, 5.86726441979408264160e-02) (26, -8.88739824295043945312e-02) (27, 9.49429646134376525879e-02) (28, -9.36986580491065979004e-02) (29, 6.70744478702545166016e-03) (30, -6.81014209985733032227e-02) (31, 1.94926634430885314941e-02) (32, 1.31328105926513671875e-02) (33, -7.68248736858367919922e-02) (34, 4.33875620365142822266e-03) (35, -7.85972401499748229980e-02) (36, 1.62460058927536010742e-02) (37, 4.67330887913703918457e-02) (38, 4.29383739829063415527e-02) (39, 6.52667358517646789551e-02) (40, -6.19535930454730987549e-02) (41, -5.40411472320556640625e-02) (42, -6.95752575993537902832e-02) (43, 4.86567243933677673340e-02) (44, -2.64616981148719787598e-02) (45, 5.82513287663459777832e-02) (46, 2.98646762967109680176e-02) (47, -6.43875971436500549316e-02) (48, 3.76848205924034118652e-02) (49, -3.11362668871879577637e-02) (50, 9.27707925438880920410e-02) (51, -1.29289925098419189453e-03) (52, 7.01960995793342590332e-02) (53, -1.40966922044754028320e-02) (54, 7.69605264067649841309e-02) (55, 7.56813958287239074707e-02) (56, -2.26568430662155151367e-02) (57, 6.48458302021026611328e-03) (58, -1.35904327034950256348e-02) (59, -1.43923833966255187988e-02) (60, -9.27260369062423706055e-02) (61, -4.64098751544952392578e-02) (62, -1.07713043689727783203e-02) (63, -3.32758277654647827148e-02) (64, -6.68696016073226928711e-02) (0, -7.74127393960952758789e-02) (1, -7.58920684456825256348e-02) (2, 8.19776430726051330566e-02) (3, -1.68414413928985595703e-03) (4, 9.45291742682456970215e-02) (5, -4.81602922081947326660e-02) (6, -2.99947410821914672852e-02) (7, 7.84701332449913024902e-02) (8, 4.76263239979743957520e-02) (9, 5.56786730885505676270e-02) (10, -8.45722854137420654297e-03) (11, 5.94561025500297546387e-02) (12, 7.87277594208717346191e-02) (13, -2.24834010004997253418e-02) (14, -7.85654038190841674805e-02) (15, -4.87058162689208984375e-02) (16, 1.31193548440933227539e-03) (17, 4.96691688895225524902e-02) (18, -1.01943463087081909180e-02) (19, 6.36786445975303649902e-02) (20, 4.69403341412544250488e-02) (21, -7.37966746091842651367e-02) (22, 9.92524847388267517090e-02) (23, -6.35359585285186767578e-02) (24, -4.88562695682048797607e-02) (25, 7.26918652653694152832e-02) (26, -6.79944455623626708984e-02) (27, 1.73787251114845275879e-02) (28, 8.42855200171470642090e-02) (29, -1.32417157292366027832e-02) (30, 4.64844182133674621582e-02) (31, 6.36086687445640563965e-02) (32, 7.08639994263648986816e-02) (33, 1.12412571907043457031e-02) (34, -6.81190937757492065430e-02) (35, -7.75102302432060241699e-02) (36, 8.56105759739875793457e-02) (37, 5.68031445145606994629e-02) (38, 9.04823914170265197754e-02) (39, -6.24897889792919158936e-02) (40, -6.59159570932388305664e-02) (41, -4.94076386094093322754e-02) (42, 5.79793751239776611328e-03) (43, 4.59616407752037048340e-02) (44, 7.73383453488349914551e-02) (45, 2.56201848387718200684e-02) (46, -1.47886574268341064453e-03) (47, -5.52628971636295318604e-02) (48, -3.48410755395889282227e-03) (49, 4.26630154252052307129e-02) (50, 3.72278019785881042480e-02) (51, 8.76360610127449035645e-02) (52, 9.92162898182868957520e-02) (53, -7.16667622327804565430e-02) (54, 9.66992005705833435059e-02) (55, 2.34623998403549194336e-02) (56, -6.74652680754661560059e-02) (57, -8.87164622545242309570e-02) (58, -5.75778931379318237305e-02) (59, 8.83534923195838928223e-02) (60, -4.28374595940113067627e-02) (61, 3.08452323079109191895e-02) (62, 1.57092958688735961914e-02) (63, 2.60144844651222229004e-02) (64, 2.54053995013236999512e-02) (0, -1.16061270236968994141e-02) (1, -6.41793310642242431641e-02) (2, -6.19323924183845520020e-02) (3, -9.77002978324890136719e-02) (4, -4.88508716225624084473e-02) (5, -3.65394800901412963867e-02) (6, 8.09648856520652770996e-02) (7, -2.32155174016952514648e-02) (8, 1.67855396866798400879e-02) (9, -8.53756591677665710449e-02) (10, 9.13356170058250427246e-02) (11, 7.76586011052131652832e-02) (12, 8.07730108499526977539e-03) (13, -4.49031293392181396484e-02) (14, -8.68505463004112243652e-02) (15, -9.71159189939498901367e-02) (16, -2.71894633769989013672e-02) (17, 2.66942903399467468262e-02) (18, 5.09058609604835510254e-02) (19, -2.51388698816299438477e-02) (20, 9.09863188862800598145e-02) (21, 6.91901147365570068359e-03) (22, 8.78219828009605407715e-02) (23, 2.39959731698036193848e-02) (24, -9.97593626379966735840e-02) (25, -5.55452443659305572510e-02) (26, 5.10845556855201721191e-02) (27, -2.19543725252151489258e-02) (28, 1.28944516181945800781e-02) (29, -8.29742476344108581543e-02) (30, 5.18044903874397277832e-02) (31, 7.80460909008979797363e-02) (32, -7.94427543878555297852e-02) (33, 5.67412376403808593750e-03) (34, -3.50245460867881774902e-02) (35, -5.76097480952739715576e-02) (36, -4.70406003296375274658e-02) (37, -1.13865435123443603516e-02) (38, 2.63591930270195007324e-02) (39, 1.88345462083816528320e-02) (40, -4.79296445846557617188e-02) (41, 4.64278683066368103027e-02) (42, -8.67567434906959533691e-02) (43, 7.94044211506843566895e-02) (44, -4.97592687606811523438e-02) (45, 9.59812924265861511230e-02) (46, -4.24698702991008758545e-02) (47, 8.86372476816177368164e-03) (48, -2.73973196744918823242e-02) (49, -6.67245984077453613281e-02) (50, -4.02062200009822845459e-02) (51, 5.40984794497489929199e-02) (52, 3.31202819943428039551e-02) (53, 5.24380877614021301270e-02) (54, -7.31751993298530578613e-02) (55, -5.55295348167419433594e-02) (56, -8.48772302269935607910e-02) (57, 6.84042051434516906738e-02) (58, 6.96493461728096008301e-02) (59, -3.47355008125305175781e-03) (60, 2.00930610299110412598e-02) (61, -9.58847627043724060059e-02) (62, 6.47744759917259216309e-02) (63, 6.46271184086799621582e-02) (64, -1.21808424592018127441e-02) (65, 7.66206011176109313965e-02) (66, -3.74523252248764038086e-02) (67, -6.12420849502086639404e-02) (68, -9.57590192556381225586e-02) (69, -2.18725949525833129883e-02) (70, -1.27481520175933837891e-02) (65, -5.81495799124240875244e-02) (66, 8.00138786435127258301e-02) (67, -6.88736140727996826172e-03) (68, 4.40502539277076721191e-02) (69, -4.74515520036220550537e-02) (70, 8.18504169583320617676e-02) (65, 5.98606392741203308105e-02) (66, 7.76027515530586242676e-02) (67, 6.92980363965034484863e-02) (68, 9.21788737177848815918e-02) (69, 5.02678975462913513184e-02) (70, 5.26397600769996643066e-02) (65, -8.35308432579040527344e-02) (66, 9.71268936991691589355e-02) (67, 1.15552395582199096680e-02) (68, 8.98100435733795166016e-03) (69, -5.63309155404567718506e-02) (70, 4.62966039776802062988e-02) (65, -9.31745916604995727539e-02) (66, 1.46333202719688415527e-02) (67, -5.77978156507015228271e-02) (68, -7.86070525646209716797e-03) (69, 8.51916596293449401855e-02) (70, 1.60949230194091796875e-02) (65, -9.26451236009597778320e-02) (66, -8.65688249468803405762e-02) (67, 3.77639159560203552246e-02) (68, 9.81819406151771545410e-02) (69, -5.60677461326122283936e-02) (70, 6.94083049893379211426e-02) (65, -5.45165427029132843018e-02) (66, -5.95015473663806915283e-02) (67, -4.24906201660633087158e-02) (68, 6.01989701390266418457e-02) (69, -3.58590930700302124023e-02) (70, -8.38283821940422058105e-02) (65, 9.64166000485420227051e-02) (66, 7.36717656254768371582e-02) (67, 1.36935710906982421875e-03) (68, 1.47857293486595153809e-02) (69, -9.63116809725761413574e-02) (70, 8.95904377102851867676e-02) (65, -5.33913932740688323975e-02) (66, 5.08520379662513732910e-02) (67, 7.02737197279930114746e-02) (68, 9.03571471571922302246e-02) (69, 3.25690582394599914551e-02) (70, -1.17259994149208068848e-02) (65, -7.88386017084121704102e-02) (66, -4.04335334897041320801e-02) (67, 3.36234644055366516113e-02) (68, -9.06205251812934875488e-02) (69, -5.91337792575359344482e-02) (70, -6.14041835069656372070e-02) (65, -2.00946778059005737305e-02) (66, 6.86881318688392639160e-02) (67, 4.14117202162742614746e-02) (68, 6.87827169895172119141e-03) (69, 2.97240167856216430664e-03) (70, -4.27706129848957061768e-02) (65, -4.57201674580574035645e-02) (66, -1.87992602586746215820e-02) (67, 4.08679023385047912598e-02) (68, 6.68623223900794982910e-02) (69, -4.50652427971363067627e-02) (70, -1.15696936845779418945e-02) (65, -5.19068054854869842529e-02) (66, 2.30962038040161132812e-03) (67, 1.78656727075576782227e-02) (68, 6.82697668671607971191e-02) (69, 9.97774302959442138672e-03) (70, 9.60297062993049621582e-02) (65, -2.87998244166374206543e-02) (66, -3.86844165623188018799e-02) (67, 3.10457572340965270996e-02) (68, -1.40291452407836914062e-02) (69, 1.21847838163375854492e-02) (70, -1.03030875325202941895e-02) (65, 3.60539332032203674316e-02) (66, -4.14997637271881103516e-02) (67, -8.64831134676933288574e-02) (68, 7.83355310559272766113e-02) (69, -1.46905779838562011719e-02) (70, 9.54095348715782165527e-02) (65, -5.19490167498588562012e-02) (66, 9.29118618369102478027e-02) (67, -3.03272083401679992676e-02) (68, 9.06553640961647033691e-02) (69, 4.47199419140815734863e-02) (70, 8.09618085622787475586e-03) (65, 7.26330354809761047363e-02) (66, -5.67873269319534301758e-02) (67, -2.46206223964691162109e-02) (68, 1.15301460027694702148e-03) (69, -2.12890803813934326172e-02) (70, -5.61092048883438110352e-03) (65, 9.72569510340690612793e-02) (66, -2.40208208560943603516e-03) (67, 2.82744541764259338379e-02) (68, 8.81183147430419921875e-03) (69, -9.96148660778999328613e-02) (70, -2.70619913935661315918e-02) (65, -3.09435650706291198730e-02) (66, -6.85038641095161437988e-02) (67, 5.55796399712562561035e-02) (68, -7.30414390563964843750e-02) (69, -7.47384130954742431641e-03) (70, -1.27656385302543640137e-02) (65, 4.78779152035713195801e-02) (66, 8.39231982827186584473e-02) (67, 9.71214100718498229980e-02) (68, -8.04750323295593261719e-02) (69, 5.61302378773689270020e-02) (70, -1.93146020174026489258e-02) (65, -2.06046923995018005371e-02) (66, 9.68806818127632141113e-02) (67, 7.35612884163856506348e-02) (68, -5.54398819804191589355e-02) (69, 2.19336375594139099121e-02) (70, 3.87554243206977844238e-02) (65, -3.76684479415416717529e-02) (66, -9.35743302106857299805e-02) (67, 9.63120236992835998535e-02) (68, -8.37410166859626770020e-02) (69, -3.52657511830329895020e-02) (70, 8.85657742619514465332e-02) (65, -7.51651152968406677246e-02) (66, 9.98760983347892761230e-02) (67, 1.75267904996871948242e-02) (68, -2.71278470754623413086e-02) (69, 6.23279884457588195801e-02) (70, -5.34327439963817596436e-02) (65, -4.41530309617519378662e-02) (66, -7.99267590045928955078e-02) (67, 7.09302648901939392090e-02) (68, -7.50961303710937500000e-02) (69, 5.92900887131690979004e-02) (70, 8.85378941893577575684e-02) (65, 5.65127804875373840332e-02) (66, 1.01713985204696655273e-02) (67, -4.93480339646339416504e-02) (68, 7.62798637151718139648e-03) (69, 3.60848754644393920898e-03) (70, 4.78165671229362487793e-02) (65, 5.30573204159736633301e-02) (66, -6.57194405794143676758e-02) (67, 5.33014014363288879395e-02) (68, 3.67036536335945129395e-02) (69, 7.84751847386360168457e-02) (70, -6.77502751350402832031e-02) (65, -7.88332447409629821777e-02) (66, 4.96495440602302551270e-02) (67, 5.98725453019142150879e-02) (68, 7.77590051293373107910e-02) (69, 9.56146791577339172363e-02) (70, -3.94812226295471191406e-03) (65, 4.39317896962165832520e-02) (66, -3.83703187108039855957e-02) (67, -8.99241790175437927246e-02) (68, 4.43687215447425842285e-02) (69, -9.48567390441894531250e-02) (70, -5.71582913398742675781e-02) (65, -5.93943856656551361084e-02) (66, -4.14724349975585937500e-02) (67, -2.72255018353462219238e-02) (68, 2.09740027785301208496e-02) (69, -8.98999199271202087402e-02) (70, 5.20709082484245300293e-02) (65, -4.42438796162605285645e-02) (66, -6.86705857515335083008e-03) (67, -1.46120488643646240234e-02) (68, 1.53329744935035705566e-02) (69, -9.87484380602836608887e-02) (70, -6.50156885385513305664e-02) (65, 8.13417956233024597168e-02) (66, -8.85412842035293579102e-02) (67, 8.66615250706672668457e-02) (68, -7.97435492277145385742e-02) (69, -4.97753620147705078125e-02) (70, 2.54941508173942565918e-02) (65, 8.00341144204139709473e-02) (66, -6.66766613721847534180e-02) (67, -3.46067249774932861328e-02) (68, -3.52167934179306030273e-02) (69, -8.86449068784713745117e-02) (70, -5.48825114965438842773e-02) (65, -1.03594139218330383301e-02) (66, 8.93559530377388000488e-02) (67, 5.64819574356079101562e-03) (68, -7.08296597003936767578e-02) (69, -3.41122671961784362793e-02) (70, 7.50772282481193542480e-02) (65, 2.29374021291732788086e-02) (66, -9.10423249006271362305e-02) (67, 5.17112091183662414551e-02) (68, -8.97478610277175903320e-02) (69, 7.76083767414093017578e-03) (70, 3.63213643431663513184e-02) (65, 5.32482936978340148926e-02) (66, -5.61426281929016113281e-02) (67, 1.08357816934585571289e-02) (68, -8.29958617687225341797e-02) (69, 8.85467007756233215332e-02) (70, 4.22453880310058593750e-03) (65, 1.76969915628433227539e-03) (66, -5.67390546202659606934e-02) (67, -1.32421404123306274414e-02) (68, 3.93405035138130187988e-02) (69, -4.08434867858886718750e-03) (70, -4.56740967929363250732e-02) (65, -4.45991568267345428467e-02) (66, 2.19465941190719604492e-02) (67, 5.65444901585578918457e-02) (68, -5.67151121795177459717e-02) (69, -1.09104067087173461914e-02) (70, 2.87231430411338806152e-02) (65, -5.01652061939239501953e-02) (66, 7.33877196907997131348e-02) (67, 2.73279324173927307129e-02) (68, -9.93699952960014343262e-02) (69, 8.85391607880592346191e-02) (70, 7.75578692555427551270e-02) (65, -8.47162902355194091797e-02) (66, -2.66366451978683471680e-02) (67, -8.21672677993774414062e-02) (68, 1.47098898887634277344e-02) (69, 2.90685966610908508301e-02) (70, -4.39696870744228363037e-02) (65, 1.50422006845474243164e-03) (66, 8.13366994261741638184e-02) (67, 2.59008482098579406738e-02) (68, -8.44384580850601196289e-02) (69, 4.28742244839668273926e-02) (70, -1.30175501108169555664e-02) (65, 1.40547528862953186035e-02) (66, 1.82091742753982543945e-02) (67, 4.15788963437080383301e-02) (68, 1.63084715604782104492e-02) (69, 9.64745953679084777832e-02) (70, 4.86166700720787048340e-02) (65, -9.95936319231986999512e-02) (66, -7.01388567686080932617e-02) (67, -2.38077417016029357910e-02) (68, 6.33359029889106750488e-02) (69, 8.65760371088981628418e-02) (70, 8.33741948008537292480e-02) (65, 7.00104907155036926270e-02) (66, 6.63657411932945251465e-02) (67, 9.06362384557723999023e-03) (68, -6.76293522119522094727e-02) (69, -4.64206300675868988037e-02) (70, 8.46930593252182006836e-03) (65, -5.63383437693119049072e-02) (66, -7.85120874643325805664e-02) (67, 4.74103316664695739746e-02) (68, 2.54392102360725402832e-02) (69, -4.31816242635250091553e-02) (70, 4.64508458971977233887e-02) (65, 9.92554500699043273926e-02) (66, -1.38087719678878784180e-02) (67, -8.40579643845558166504e-02) (68, 3.77880260348320007324e-02) (69, -9.67862308025360107422e-02) (70, -8.61482024192810058594e-02) (65, -9.28363874554634094238e-02) (66, 9.88407805562019348145e-02) (67, 1.71224623918533325195e-02) (68, -2.28879302740097045898e-02) (69, -7.74137750267982482910e-02) (70, -9.32587832212448120117e-02) (65, -3.74242663383483886719e-04) (66, -8.98941010236740112305e-02) (67, -5.01135662198066711426e-02) (68, -5.86601085960865020752e-02) (69, 9.95708033442497253418e-02) (70, 8.64667519927024841309e-02) (65, 4.68195900321006774902e-02) (66, 9.69541296362876892090e-02) (67, -9.19933170080184936523e-02) (68, 6.83461502194404602051e-02) (69, 9.37981531023979187012e-02) (70, 6.54135718941688537598e-02) (65, 5.92134147882461547852e-03) (66, -8.00739824771881103516e-02) (67, -3.41707468032836914062e-03) (68, -3.08140963315963745117e-02) (69, -9.24695432186126708984e-02) (70, 6.43496140837669372559e-02) (65, -7.59847164154052734375e-02) (66, -7.51740038394927978516e-02) (67, -4.93962466716766357422e-02) (68, -2.70645320415496826172e-03) (69, -8.74380692839622497559e-02) (70, 2.83618196845054626465e-02) (65, 7.70480856299400329590e-02) (66, -5.27138635516166687012e-02) (67, 3.81081774830818176270e-02) (68, 8.41854289174079895020e-02) (69, -9.54446569085121154785e-02) (70, 6.16858080029487609863e-02) (65, -4.65860627591609954834e-02) (66, 2.80483290553092956543e-02) (67, 8.12499225139617919922e-03) (68, -4.32121232151985168457e-02) (69, -6.61372169852256774902e-02) (70, 3.18210050463676452637e-02) (65, 1.56140699982643127441e-02) (66, 2.55517140030860900879e-02) (67, 4.75737079977989196777e-02) (68, -2.86947861313819885254e-02) (69, -7.32871741056442260742e-02) (70, 6.25323131680488586426e-02) (65, -1.92594826221466064453e-02) (66, -9.40971896052360534668e-02) (67, -9.14531275629997253418e-02) (68, -5.27023635804653167725e-02) (69, 3.13975885510444641113e-02) (70, 9.92467626929283142090e-02) (65, 4.03186604380607604980e-02) (66, 3.57239469885826110840e-02) (67, 1.24297514557838439941e-02) (68, -9.31350961327552795410e-02) (69, 7.84205719828605651855e-02) (70, 1.44733190536499023438e-02) (65, 5.30570223927497863770e-02) (66, -7.07893669605255126953e-02) (67, 4.31222394108772277832e-02) (68, -4.44240570068359375000e-02) (69, -3.50802838802337646484e-02) (70, 5.63333183526992797852e-03) (65, 7.94058516621589660645e-02) (66, -2.58528441190719604492e-02) (67, 9.13089588284492492676e-02) (68, 2.95473113656044006348e-02) (69, 1.55669450759887695312e-03) (70, -3.65939214825630187988e-02) (65, -3.39940339326858520508e-02) (66, 6.22784718871116638184e-02) (67, -8.57373774051666259766e-02) (68, 1.19215399026870727539e-02) (69, -3.46419811248779296875e-02) (70, -2.77292951941490173340e-02) (65, -4.62794117629528045654e-02) (66, -1.81309953331947326660e-02) (67, 7.23730400204658508301e-02) (68, -2.64402478933334350586e-02) (69, 1.87370181083679199219e-02) (70, -8.69983360171318054199e-02) (65, 1.89948305487632751465e-02) (66, 4.62212637066841125488e-02) (67, 4.09258380532264709473e-02) (68, 4.04767468571662902832e-02) (69, 9.25477817654609680176e-02) (70, 5.06009534001350402832e-02) (65, 5.00747039914131164551e-02) (66, 5.62472641468048095703e-03) (67, -6.52285814285278320312e-02) (68, -9.67928469181060791016e-02) (69, 2.71265208721160888672e-03) (70, -8.35069268941879272461e-03) (65, 4.99024316668510437012e-02) (66, -8.99409353733062744141e-02) (67, -3.73195260763168334961e-02) (68, -2.92351394891738891602e-02) (69, 4.49642017483711242676e-02) (70, -8.66726040840148925781e-02) (65, 9.35651734471321105957e-02) (66, -5.00516593456268310547e-02) (67, -1.82617157697677612305e-02) (68, 7.54376128315925598145e-02) (69, 7.99727514386177062988e-02) (70, -9.78931635618209838867e-02) (65, -9.03404876589775085449e-02) (66, 4.74412068724632263184e-02) (67, -5.55973760783672332764e-02) (68, -2.50649601221084594727e-02) (69, -6.68765380978584289551e-02) (70, 6.04323297739028930664e-03) 
